solver_type L2R_L2LOSS_SVC_DUAL
nr_class 6
label 1 2 3 4 5 6
nr_feature 18624
bias -1
w
-0.005410583183147399 0.003713575506282252 0.006499413877397877 -0.004296303155823781 -0.004987980183782822 0.002771930122593302 
-0.004057406349827918 -0.002097051685940604 0.001680016789110222 -0.001908923267273125 -0.005790023750021958 0.006752342267879172 
-0.005695372183771742 -0.004030952512653567 0.0007897311916487534 0.000476893746126043 -0.004706086677330878 0.009515604941296519 
-0.00230935035121689 2.955527114668063e-05 0.005762719283667887 -0.006431480117054136 -0.004210069334079349 0.002501746103699215 
-0.002652101926578036 -0.008627349634450453 0.01123848252357454 -0.001932097287552271 -0.005654186649358952 0.002132816317378026 
-0.00232098460393431 -0.001154648995617738 0.01636572593845532 -0.01874416568255114 -0.004130598425612302 -0.001267577878079672 
0.0004136936472957092 -0.007849910096769143 0.01434948213317999 -0.01371085308666382 -0.00338840033225172 -0.0005477700287841712 
-0.007382195928595639 0.004168745930910611 0.00532093797448193 -0.01284545347959293 -0.001906402228885909 0.002085919451602585 
-0.00333706982111351 0.01601683351432803 0.003387626497096447 -0.003615736973793932 -0.008212921987200921 -0.01304270373975911 
-0.01410147151059871 0.0002061978673171404 0.001660118534212307 -0.007538063799436737 -0.00143089120971588 0.00965024947963611 
-0.0014847861601851 0.0007624838529123269 0.0006967224074723989 0.0005030991384700361 -0.002517049308536534 0.0003544129425085486 
-0.001093328508735687 0.002977602630844743 0.0001430489987231999 -0.005170599933930493 -0.001244951559611694 -0.0001180434775551977 
-0.005217666125332874 0.002699320228389222 -0.0009728817156596232 0.0003333892590360284 -0.00301197564255182 0.002332857524836577 
-0.004508801466373114 0.004352493012581632 0.001356227511764327 -0.001309067974942698 -0.001650365709010054 0.001366112665134638 
-0.01140301276592764 -0.007434745303861018 0.006402811716911476 -0.009602074294354598 0.003082178162122432 0.002766600990866726 
-0.004529210591055524 -0.001035554166098751 0.00402193864401368 -0.007848512895649435 0.00191546748686988 -0.004086630814168943 
-0.0105886328300894 -0.007841548577964829 0.001722338203097991 0.01715385278232114 -0.0002719063563959962 -0.004339867733782774 
-0.00645176946238367 -0.0002322831176906972 0.01027305992549257 -0.002849983993787256 -0.002215557758961383 -0.004895243740804123 
-0.008687041345758357 0.001010775024419131 0.01087659397723789 -0.004677431048163046 -0.00630587651323111 0.000859021116082725 
-0.004978411874076566 -0.0008934508823956743 0.003600517922359131 -0.003921318182418282 -0.0009344177542158548 0.001476538274236099 
-0.004947361828067459 -0.01096453727863226 0.0100376066454976 0.0004561898013418837 -0.003544162555974095 0.0005532686882041732 
-0.004259515070842526 -0.003426915909784838 0.004542467361522294 -0.002566434768318767 0.001937224875077241 -0.001059166329629068 
-0.002238499864211022 0.002227742658922809 0.0009568047212233491 -0.001085638842983962 -0.001015431509765654 0.0002006939961479292 
-0.0101817862522182 0.005147610458983979 0.004718871601659846 -0.01199612010194419 -0.004126977939135051 0.009550750520436108 
-0.01890180056216659 0.001451105945569762 0.00525957422490687 -0.001692198959013205 0.01129095132177588 0.0007343657635312741 
-0.008862298366769683 0.004437905471028849 0.006527158671726039 -0.007889908102461025 -0.002337160567259253 -0.0001926266685408451 
-0.005668678395088626 0.003696851646345577 0.005125406754405375 -0.004510219329939705 -0.001209924587742462 -0.0003157754759331638 
-0.004706420923212272 0.001234297589082725 0.001415947570109947 -0.004010206878697742 -0.001753191507939695 0.003271278746645035 
-0.003362003792141617 -0.004407803362207603 0.003320592175478917 0.005924918417337312 -0.003440063190019577 -6.609156183202306e-05 
-0.004815280170897767 0.001870918979265075 0.001725218368633112 3.137469303591669e-05 -0.0001205900113865082 -0.0009892578159195785 
-0.0072624818998691 0.01004645068722232 0.0006403626237308398 -0.003532045279181871 -0.001331935575917099 -0.002505432986111217 
0.0008381030320246318 -0.0048691840155872 -0.002506660492292959 0.005564575415388455 0.005133658939210689 -0.004260889762584871 
0.001147360870657297 0.004027520024099677 -0.002704324251259751 0.001848210216124276 -0.004629097205235003 -0.002072627078771565 
-0.007596366941822101 0.004866949407293274 0.004430984911665345 -0.002012142541579809 -0.007163062498377656 0.002609363535088818 
-0.01074765243048777 -0.006281658553193128 0.004452041989164155 0.007121417018896277 -0.008790620661176345 0.004301959715742615 
-0.01971489027646833 -0.002474885917661968 0.01769560683988104 -0.008460374906667546 -0.01360534511147101 0.01379556759236433 
-0.01304238606099352 -0.005309640883128243 0.009567007757938754 -0.001611384954665814 -0.003592344581836125 -0.002681889415441721 
-0.003529875388393576 -0.00127107485642815 0.006268816692859849 -0.00876537497277924 -0.007498180679298879 0.0002957642304298616 
-0.004168227544159608 -0.001781712830503946 0.008038062204106116 -0.01003039580787158 -0.005048475249204458 -0.002863029115582797 
-0.008839043426339999 0.004392994079724592 -0.0001929445768296392 -0.008389063506503347 0.0001835515377102615 -0.005932579819020784 
-0.007135964043549729 0.009684644963093953 -0.009855689878862262 0.004372903884211173 -0.01412437037367417 -0.005914982976787783 
-0.007391736484078314 0.005883681784117276 -0.01049620994168533 0.006900380916416293 -0.007423642221927867 -3.443949634801166e-05 
-0.007725597320583295 0.005069273702705965 -0.003709777533643538 0.004492719207914091 0.003079335305426579 -0.002500277201566077 
-0.008738378137241711 0.00524633736048774 0.001318421125131883 -0.007798125805783674 -0.005650517679180655 0.007513308391984891 
-0.01378814426396664 0.006278034776950581 -0.007731464732796034 0.001264547056940588 -0.008196320729161488 0.0170533704539101 
-0.01013895595434265 -0.0007658836315256836 -0.003885680812276725 0.00408429096468758 -0.002332214168836361 0.01037352754571014 
0.00499365602791525 0.003234804353312031 -0.003734553491493043 0.001374637029855998 -0.004326426156737626 -0.001455166919771402 
-0.001867094971605197 0.003071894082924216 -0.002838249461900921 0.005782958770956852 -0.01034932672333293 0.000537704273741677 
-0.01462141169927343 -0.0100649998624219 -0.004788846891371514 0.02015014013049904 -0.005096635197062382 0.00616569331461258 
-0.009688543917675095 0.005158124055339166 0.000563763834628936 -0.003072688055967287 0.002799415203750774 -0.003110952789470972 
-0.01568423042627953 -0.003632512053778611 0.007614245302966111 -0.003495755976733103 -0.0006307699351212541 0.003703485733762839 
-0.0143345609585075 -0.003577601497633098 0.02178550561332538 -0.005404823534995979 -0.009102928173501135 -3.044815429400714e-05 
-0.01305674040671561 -0.009797194187014574 0.02762232274997377 -0.01105744480735817 -0.008214506173991862 -0.0004704827063995129 
-0.01202695810309205 0.003325519876762846 0.01088320597327124 -0.007511677229599744 -0.009534994822835683 0.003800429970419558 
-0.02103845177295526 0.003275685421571929 0.005346233673297573 -0.005465457158438513 -0.006382799808940971 0.01294059102874809 
-0.02210199449726779 0.005379985894072051 0.001660334510029301 -0.0004242186998806704 -0.005271196583722104 0.01699822593219562 
-0.01738553451373494 0.01027477147150949 -0.006160538719704683 0.004581289623683625 0.005971901793938856 0.005371704907983816 
-0.005339774862035958 0.0007262050079754774 -0.006873341392048509 -0.002559815218189119 0.006904212395946394 -0.0008090617750322165 
0.002493592793675372 0.00589566388775983 -0.01400694262483399 0.014721636727277 0.00303549932594723 -0.003981149669926068 
-0.006216816273380636 0.01277707938901726 -0.005140723437542942 0.003333141398967381 -0.003118942770192352 -0.002066857414632372 
-0.003419175442553289 0.01448186244424449 -0.01112761750879183 0.001848856454046151 -0.01018043817725403 0.003410716850950644 
-0.001630865629722371 0.004130047212625815 -0.005924434370535987 0.006160975096037957 -0.004192451775630735 0.0004142789793554024 
-0.005302859253865404 0.007731155311545651 -0.004900109391402966 0.002298508277705224 -0.004052769126160926 -0.0001238381857464842 
0.008027134960600955 -0.01543731145219315 -0.008784356125852027 0.0158789321006736 -0.0005716748737137359 -0.006735094264104417 
-0.009938250449069694 0.004591489276640048 -0.003325309534786773 0.002366293498862091 0.01199802125154791 -0.001644098499547933 
-0.008054855733955842 0.00248627139651399 0.006915465986498831 0.0008045050742528574 -0.01058165418328403 -0.002612300181666585 
-0.0121102335462776 -0.000516936450867655 0.005328215131307806 0.003353781319380423 -0.0106680194242682 0.0006883295405189005 
-0.01803423447285108 0.002352969701376606 0.0116668820162965 -0.004506177670896228 -0.007122687713249446 0.00543862125616132 
-0.01615101694540591 -0.009657746121073951 0.01119531516324604 0.0006694462599727822 -0.01130286673099789 0.007202278219630769 
-0.01298229722971571 0.001401952948527073 0.001008066984508343 -0.003186123350195684 -0.001876568068238711 0.0009253188117450691 
-0.002894391562165694 -0.01079244703560676 -0.003597926298869793 0.008504894752431116 6.866558488058889e-05 -0.0005020840438173056 
-0.01521667552129327 -0.002761592783388986 -0.007088413523616307 0.004421457092479652 -0.0008213853409341047 0.002606774166236609 
-0.0007896287860202219 0.00906788294237695 -0.01268345256361122 0.02384070857445091 -0.02111566866686096 -0.007199587272326668 
-0.00829676136273412 -0.007848218362950054 -0.009100769058744913 0.01789248278884875 -0.006030304933036875 0.002308226742739708 
-0.009719904527597644 -0.005205952175715958 -0.01215226968048625 0.01512240009705948 -0.0001710991827495735 0.008874688632110451 
0.004256423081455348 -0.009491291305549949 -0.005236401078810102 0.006022030793152233 -0.01304018323234766 0.008937930618696311 
0.008180240312127182 -0.002566054076910293 -0.005993218398286953 0.002325892352698001 -0.006930431361504581 0.0007798473960767256 
-0.005288524347560882 -0.001577421581500965 -0.004506087414209592 0.005915287181247205 -0.00695280179784357 0.006418259837706186 
-0.01014636830749717 0.0003007156977117261 -0.01199181855366861 0.002880384117863251 0.002676838416799924 0.002022372427318999 
-0.01067006851206031 -0.002869285598042145 -0.006883873507806083 0.01178636452773245 0.001894467393200942 -0.00288756093943565 
-0.01146183260655566 0.007280963324641766 -0.01215927998676772 0.007562349560875799 -0.0006083741475743505 0.005273607376728794 
-0.01359815744310433 -0.005335162876923282 -0.006007480075600937 0.01049072461833332 0.004114557462061907 0.0042243713173734 
-0.0146191051042964 -0.004726856150612688 0.01055392112920863 0.009037183809240576 -0.008071263327029472 0.001705211282686326 
-0.01165261096663124 -0.005144137570967429 -0.002793357405510902 0.005710463073678794 -0.004551471366436589 0.01065123864970208 
-0.01893368142583831 -0.0001029344635702852 0.002514353546109573 0.003480349413210315 -0.002660792493729209 0.008753792930011255 
-0.01926623760708387 0.006169011802934504 -0.005135286336671893 0.004598389545839401 -0.004655263350945977 0.01204845586701549 
-0.01560031783754694 -0.001195237997428009 -0.003059145581699661 0.005305009621227823 -0.003120903511001277 0.01138701066694834 
-0.01068331207578767 0.007462960288390994 -0.004304184951179081 -0.000225328802543474 -0.006054485274280465 0.006415366661005234 
0.005343393161736741 0.0009609519239503597 -0.005173704367486 0.00233313898992311 0.001059313714006912 -0.005972590147061632 
0.002000014047204816 -0.002810850355185395 -0.009017581291642948 0.006660592162302513 -0.0004670111045030033 -0.001666278860288509 
0.001887035214614813 -0.001195336693542855 -0.008923900462456504 0.0008103601463433125 0.0007893546596911418 0.001003390854996326 
-0.002874113634985151 -0.00509345962214791 -0.01005895516958723 0.002710740120138133 0.0006102668248675596 0.00823201524574293 
-0.02110450968635249 0.003121999046899778 -0.006573205211427382 -0.001786446879362644 0.001059809427338793 0.01114364861995838 
-0.01401004338239941 -0.0008278663494517213 -0.005952023069999205 -0.00120146743055266 0.0009795176158004365 0.005545980150844518 
-0.003020922801904406 -0.002325783724398527 -0.003252746807819173 0.002744510707763032 0.003751394243128877 -0.001264983336633336 
-0.01100515498994132 0.005984014773431651 -0.006308461237626193 0.001728284367329071 0.01408525533260581 0.00278131653658864 
-0.008087403132321709 -0.0004222169048633807 -0.001648633916430088 0.005213456471593699 0.01566095306553322 -0.01255090269215423 
-0.007341148183116196 -0.00647732624925151 0.00154285549211199 0.006651720316389164 0.007000269151232648 -0.002731066170339538 
-0.009170587017049146 -0.003414088686558803 0.001891093006528658 0.002813268676409731 -0.002930165801976392 0.001828680856110431 
-0.009618365133743959 -0.01492145915795643 -0.004178743634315358 0.007219440565738933 -0.001029035517180713 0.0170464401803418 
-0.01161741946020163 -0.0009585704546130382 -0.001200841764837077 0.003469762004452225 -0.0004237522879693862 0.00674925904959948 
-0.01200105363558208 0.001462615105896225 0.0006707752142535287 0.0008024732338235627 0.002701151828335034 0.004136945898148146 
-0.007416771079187309 -0.004506339713671754 -0.001074425225179963 0.002618630439887492 -0.002918646746772869 0.004682441563765659 
-0.009480240411745782 -0.001717520028888019 0.006360622217655153 0.007896611637830973 -0.004926228060486763 -0.01530188883558778 
0.00280718503948673 0.02065065243743279 0.003603371739089581 0.006650076816715324 -0.0281005035924991 -0.0138645287283401 
0.01225871898798058 -0.01063457427776901 -0.005678841754151534 -0.002157099934808237 0.008679614091648961 -0.008829133508625218 
-0.003962568510840515 -0.009182132906614694 -0.003457480541348723 -0.008716316325326623 0.003718753092517533 0.007651559975527697 
-0.002016106012131445 -0.009844705021879138 -0.007706275396014968 -0.0125529564384489 0.002890378541456391 0.01337481157264259 
-0.0231324477387858 -0.004493294995962923 -0.008581288416043265 -0.0007701558802857746 0.02368565754602516 0.001597112796855129 
-0.008426233941246522 0.002442595837736195 -0.004897525049505586 -2.435886699388946e-05 0.006553470286505923 -0.003628704766751869 
-0.001708432227720604 -0.003093266796444901 -0.00134712788984838 0.0008238650119982493 0.001104588720181755 1.810963530899744e-05 
0.01147243728124722 -0.01316543671473987 -0.004956292777054765 -0.001529388294917757 0.01052695705606638 -0.002374286471592604 
-0.01403562589822746 0.01431218899667164 -0.008651593617806996 0.01932087362902687 -0.002273649174681808 -0.01553395392800371 
-0.003447285108965975 0.0009374824276150858 -0.001736457158653942 -1.503375373006072e-05 0.003061517870738009 -0.005191838161924612 
-0.008896441610182082 0.004784608669973043 0.001519581683922205 0.000647977491410032 -0.00308705088429544 0.001758725485193329 
-0.007834983415782409 -0.005681225401682495 -0.005370290407024183 0.001182578889306762 -0.005686169894184967 0.01674779181771211 
-0.003597315604215294 -0.002031302120532788 -0.001279038403186493 0.005848663207985974 -0.0005635074129947462 -0.00145975109911455 
-0.01272100114534596 0.003670495940330051 -0.004569051384290923 0.0006661477898257504 -0.0009884503580535775 0.006669431095583322 
-0.00589317521522719 0.002636272220580476 -0.009529145992130393 0.004876894738417207 0.007427288298962709 0.0003922974145885267 
-0.002521287233751227 0.003824540730205832 -0.01132319720608347 -0.00115740475082388 0.01805148618370958 -0.001277230013188249 
0.026602793344581 0.004136934742893582 -0.002820754991800899 -0.01495030898803016 0.002043223296771503 -0.01259401711463477 
0.005100596166752056 -0.01109269341382211 -0.00804161756458523 -0.002917872980853022 0.008051590493594748 0.005045796370421553 
0.0005156356822431547 -0.002516968362752558 -0.007671255806211989 -0.005470139515799475 0.001015601928302492 0.00756122391924487 
-0.01602467696408053 -0.004346115248125842 -0.01120366903490993 0.0004839412709524059 -0.008458248969563755 0.03497592681942464 
-0.01317407754030427 0.008658389249631865 -0.005745103158246705 -0.004252225274480278 -0.00232242822820487 0.01466174874126856 
-0.01119005387287008 0.008096783176706162 -0.002497135770409516 -0.0003584562196681197 0.009370503321771206 -0.004117151808134266 
-0.01651523981927553 0.002583876556710494 -0.003402290955562538 0.005372936692503133 0.01750100482626545 -0.007896961841312148 
-0.009439590613831523 0.01256872378100965 -0.01066870607221014 0.0005494343317004716 0.04055028876753123 -0.02562016881534645 
0.01095482928891014 -0.001695191230021237 -0.008089401267156309 0.00288312852406967 0.004968718649110711 -0.006163917381474246 
0.001154945772901671 -0.0001038441189317858 -0.004060082543529613 -0.000619327173892805 0.01031583769307966 -0.005473023525393401 
0.003831750454334298 -0.00539147293994077 -0.01023712256962688 0.002321744137331592 0.02046921936185191 -0.004375078527129915 
-0.01169425582753469 0.0002950928401687762 -0.01136606581730706 0.000788008243087886 0.01683715860154324 0.007346799020358281 
-0.02803557876156691 -0.001421449365992114 -0.007519773168718981 0.005377041836756882 0.007926529243011793 0.01486004134852211 
-0.007308351323293116 -0.007422326475380143 -0.006171871165355675 0.0009751096367675802 0.001071874742088049 0.01545671783821548 
-0.01290525591575846 -0.02050499145656643 0.007788096533460786 0.0001551613358672883 0.005417838570763279 0.006902268993504906 
-0.01045902496935301 -0.01673653712243215 -0.01018642910520982 0.01903764847665178 0.009047153841705291 -0.002608213976871088 
-0.001237165168428033 0.01384989677207108 0.03782711929027525 0.008894779578480725 -0.0416919936821935 -0.03475237125883551 
0.00154485611443294 -0.01560030830427984 -0.001079323138708513 0.0008476486814803364 0.0106799886785524 -0.0002575826028438865 
-0.005503985012103497 -0.0002573870894586645 -0.005086981118538288 -0.001050447654326932 -0.003107174984138548 0.01151707335955798 
-0.01555929495103196 -0.007843172820538445 -0.004110278351201569 -0.000123887889475047 0.009368227698708476 0.01076419418868816 
-0.01221857162247656 0.005927574870904441 -0.002776889952196524 0.001682392657850732 0.009144080546650602 -0.005334926456656649 
6.505401993177625e-05 -0.007408832156067299 -0.008339834478446113 0.01162026772597987 0.004511642864846052 -0.002801637031967862 
0.0006604296146075896 0.002057197436347582 -0.005697529913433227 0.0009722279609627523 0.01447675106068127 -0.009488614614907472 
0.009742716523125375 -0.005126182367526589 -0.002382321985764961 0.006271372125514532 -0.0005069547047291722 -0.01169225574185899 
-0.008564977280699318 0.01031916671436112 -0.01145896227233942 0.0187779002111114 0.02752650571430747 -0.02252407375033531 
-0.001443284652804676 -0.004019686606374704 -0.003407759059130331 0.003442345972321461 0.01419440066495731 -0.005905937288783264 
-0.0006780481656516715 0.01200776143296734 -0.01114844246104136 0.001730867110272246 -0.001511321333801898 0.0002513782358023019 
-0.01475390305299228 0.002741981734083999 -0.01707414456458275 0.0006096051232023393 0.01372966078892019 0.01086733063643046 
-0.02052537319139827 0.002378265270424397 -0.01812232200967098 0.004994282722089817 0.006027008320741347 0.02374513490752249 
-0.01989151528520155 -0.001781219767948108 -0.01694583351546785 0.003742808670685343 -0.02122819686835871 0.03985818135757442 
0.00186683561545607 -0.001205740287275898 -0.01166969910708996 -0.00197615547426656 0.003668398007623348 0.005433231596589099 
0.009095469719706531 -0.01296823923939073 -0.01505660560992425 -0.00616662431539606 0.0260461721399035 0.001519285084455899 
0.02943936426161791 0.008712508240675603 -0.01402207364002942 -0.007914432318822344 0.01733611776720176 -0.02157776476953095 
-0.002856393454363761 0.002715147502137425 -0.01462220195295531 0.003307494061695271 0.008122122134720125 0.0008916675846426864 
-0.007278836526127179 0.005921167829731613 -0.00723446796624014 -0.002917644058552881 -0.006295618776462455 0.01479616374303074 
-0.01770559967075703 -0.002667576136659762 -0.007257737341933725 0.006546285207373992 -0.0015917085053471 0.01714955316264342 
-0.007583275714286188 0.003665455829891139 -0.00816875594024148 0.004325772136212993 0.01155886644903036 0.001378563293620711 
-0.01191030236173919 0.006809969175319249 -0.01291250337111789 0.005483852624235412 0.009018355460017289 0.005330954033505116 
-0.001884122020813659 0.006919864479011216 -0.009546339695506037 0.00771867346944405 0.001369263870751936 -0.004816789159124708 
0.03302601557664154 0.007879873204345167 -0.02763315157615232 0.01227583331927632 0.003601101423689066 -0.02050461875571389 
-0.005038823575029852 -0.008719231538644812 -0.006851235610858397 0.009383033058671299 0.001258970376380409 -0.00174551713842535 
-0.006400844174847146 -0.001132181958449226 -0.007045232751592585 0.009094640255595291 -0.006189532389574095 0.007747776347417911 
-0.003910899892715573 -0.004836956077375045 -0.008450880523618655 -0.002667107946282006 0.003340931717414131 0.007309622221829641 
-0.001991946283627513 -0.009237240203071146 -0.006728381740811802 0.002012118896628638 -0.0007616649178735691 0.008848721798837545 
-0.005698939976432946 -0.008081630921316524 -0.01151413364108061 -0.003620058020211617 -0.005217829089932137 0.01947112228165101 
-0.006264514382369762 -0.007024224142199598 -0.0104858767656416 0.00520172565568791 -0.0004744742247710075 0.01118078270786697 
-0.003925435460592217 -0.009999365963091594 -0.01137674541849841 0.009826788337994196 -0.0006356838936420255 -0.0007444601628405705 
-0.009596369302320761 0.008350341677911832 0.0003864268614988542 0.02282829163546668 -0.02048948305511129 -0.02175623664415473 
-0.01058668713177652 0.001309985295116915 -0.004023817752267558 0.01571223245814967 -0.01383026961013479 -0.005383883394005438 
0.0004298911266260556 -0.01533495121847043 -0.003520893747424088 0.008320819907020369 0.003919878943978267 -0.001437133147266995 
-0.004935098126837511 0.003115273625626494 -0.005200054199016403 0.004902607762599858 -0.003008356844317211 -0.0003653387194462188 
-0.01145110739587291 -0.003705814545360865 -0.00663967844278761 0.005841289189045927 -0.000136061706913092 0.008353829091712627 
-0.009453374042505645 -0.001864331511952585 0.003430227618958902 0.004495976046797312 -0.002761384815174625 0.002793366718075144 
-0.009760579039419152 -0.007056802089090126 0.001973011788058727 0.01117700073313137 -0.01153530112316119 0.003825555507884004 
-0.01565239389825967 0.004723259191625293 0.002411047928708072 0.002493434215466846 0.007821042510473001 -0.003881687067502385 
-0.006839015499707519 0.000123445116776933 -0.004789389079116676 0.004460822745369807 0.01730636262083422 -0.0004725589415472901 
-0.005401355542323781 -0.001248246982922657 -0.02388689167768891 -3.785539158317913e-05 0.04862291696201904 -0.02098975326024367 
-0.007949469146293677 -0.003799818830438629 -0.005112961860395479 0.004246239345978391 0.009205812943556038 -0.001434026873861246 
-0.004919956485216685 0.0046618466076036 -0.004287807563604553 0.001299878008230116 -0.0007958940238984346 0.000989158707531148 
-0.01261998844523557 0.00700118084797615 -0.008434601792607292 0.001542323578077552 -0.0001437037075767769 0.008996986264920653 
0.01240156705552758 -0.008738132297407622 -0.01118850535522836 0.004136367346960425 -0.009766313408970511 0.008111671209580356 
0.02528630050628263 -0.0002417007715633713 -0.01357653723415118 -0.004654141001865736 -0.002515104770561632 -0.005555240635652957 
0.02526789777499772 -0.007650191682251188 -0.009104244983784046 -0.003370060904709099 0.001930413946467208 -0.0129888550968737 
0.01397326855585085 0.001553362878152033 -0.01305511959261909 0.002924783778037442 0.007004150059391766 -0.007016386259362597 
-0.0161140085807078 0.01832100211144527 -0.02260385420206269 0.00783048295142548 0.007437530258047543 0.006599485582871418 
-0.01026979234464352 0.003366009914063542 -0.009710380834617855 0.006433627394981112 -0.006952915874896159 0.01217838711943804 
-0.02006829113137747 0.002546862968360043 -0.009184506477813549 0.006213555288312261 -0.0007573156640553874 0.01156238887899612 
-0.02120384950712264 0.004482293880172192 -0.001100478954671167 0.002336871070934614 -0.008715626343355289 0.01527817020274218 
-0.01091304773524063 0.005032547039768567 -0.003664262663578473 0.001865180556902048 -0.0133974983828158 0.01566712650747155 
-0.004763086125057088 -0.002066769145477165 0.001767062266583975 0.006253191246471307 -0.006561771202949927 -0.001384555736635329 
-0.004576659306775029 0.01481943971867296 -0.007789771048047896 0.003340383278069652 -0.005315968116651356 -0.003202010734620433 
0.01032803672904392 0.01183252980936652 -0.009905422070821169 0.009694094680320557 -0.00876776651160969 -0.01810460074669397 
-0.005950763912923605 -0.0097125431465632 -0.003471602330302494 0.0101176719448346 0.0001884294198843054 0.002397618721961405 
-0.005442098080224316 -0.01140597343053895 -0.003987685738877582 0.007374505113118412 0.006676376453018888 -0.003136506586692946 
0.00691493580646336 -0.001678244838813511 -0.003564047804904776 -0.003159943817556354 5.990359573179241e-05 -0.002342961065976301 
0.007187523081811455 -0.005248457547463187 -0.00409802131795937 -0.007454805207576336 -0.006064839355352629 0.008534526125628729 
-0.0006517470143175987 0.005703431084023494 -0.006371515572843552 -0.007484696094812794 -0.007207067571251773 0.002103630725534562 
0.001522439685645237 -0.00776976875752949 -0.004333449440972121 0.003701243541094184 0.001762437656717042 -0.0005070857964350229 
0.01057466119868428 -0.001178059267942311 -0.009131781505219011 0.002485076138426214 -0.005382902965866675 -0.01265807690442539 
-0.00472259839376633 0.01507362520822664 0.004932337028074336 0.01036317752987923 -0.02245761340207889 -0.015193674247436 
-0.003203821128804967 -0.01015910455803547 -0.006011110224004742 0.008347477828621334 -0.0006842297023917975 -0.002874244518561594 
-0.004151463465819683 -0.005595474509816673 -0.0008704553306582551 0.001470852705065719 0.002606665126161372 -0.006235403842862395 
0.0004194114084798059 -0.01041334465111625 0.01581588112003354 -0.01393262221972459 -0.003360447845290121 -0.005190156200855744 
-0.007603077185393211 -0.01607400481007563 0.01716937011992673 -0.02002112629645045 -0.002214413125434677 0.003999546343571727 
-0.01590516165178514 -0.003654276513505562 0.006652026514217465 0.0006044728515695615 -0.007378801900282304 0.007687080486998328 
-0.02184451766533866 -0.01118832149902825 0.01806518160305507 -0.002825634250302043 -0.007590185227357066 0.009929409346484484 
-0.01386735880914279 -0.005342830135021275 0.004330764780491529 0.004849670263254264 -0.001573081590527086 0.005331564743810774 
-0.01033308122947979 -0.002986093132277221 -0.006392681302300298 0.006502073938641715 0.006246135980900251 0.004824537690074681 
-0.0259213518790079 -0.006824396534923188 -0.009588085344133739 0.01177728507553738 0.01500189715096181 0.008003795819428377 
-0.006139592063646666 -0.00558261677345101 -0.004361055096123077 0.001983380384778281 6.453473244600523e-05 0.006132082611424267 
0.003222946809747929 0.003366679774514817 -0.006924001062212309 0.004431989410200756 -0.00931416922761007 0.0007274834012558535 
0.007077465850760178 0.002801937349790125 -0.005306455134606316 -0.00372455353422738 -0.006180628859399597 -0.00429849758352375 
-0.006235438035287026 0.0006945930897453896 -0.00427562744185397 0.001945215496307581 -0.008463580061565302 0.008011270943981921 
0.004717175228957285 -0.002675785895456431 -0.005048841659144891 -0.0009593255943538517 0.001551747299167869 0.002987184087881711 
0.003033950912761361 -0.00491213601479276 -0.005510195172009403 -0.0002929387177929206 0.005038278174897669 0.004947428670255835 
0.01105403119296114 0.004089925712537491 -0.005766068272312314 -0.00306619383173929 -0.001750992794745917 -0.0007269449103396735 
-0.02400327184402835 0.002292010466218851 -0.005544803340601678 -0.001323090547231917 0.0140686308426236 0.01373828572471062 
-0.02199105416274985 -0.005299138028873354 -0.002033453297005718 0.001309910729347731 -0.003014383622484432 0.02170258895302694 
-0.01535977390170515 -0.001569626693465162 0.001818445390812472 -0.001796813259354132 -0.004503594400669044 0.009253029691053443 
-0.01601747858438535 0.003245662994639919 0.01164769401483731 -0.00454160495127088 -0.007979538948891295 0.00418649024337423 
-0.009203377606473915 -0.006348589187269552 0.01209527809906408 0.00207756935216914 -0.007212782841416457 0.001628417693276312 
-0.01577459035960121 0.0008693551949899996 0.01383161628314436 -0.0004114481592235526 -0.006426422446323369 0.002767996764229771 
-0.00487487091991191 -0.004259446699023935 -0.004135516362821887 0.007504240087542799 0.001378306428452351 0.0001382232477637525 
-0.005772602909083926 0.0005323023492449318 -0.006912704977096533 0.01641722980192055 -0.0006369668566201154 -0.007183030869992467 
0.006150635113379749 -0.01141300758702026 0.0005360961288692247 -0.0140884621076521 -0.00403516928791767 0.006111588616108281 
-0.002913069839183739 -0.007038744593706391 0.0004774836123447031 -0.004957803788246803 0.00491889204065725 -0.004087845246582227 
0.00515973694289815 -0.003884708646918672 -0.0004213024616608831 -0.005616638002625589 0.001386342487474809 -0.00277938613452471 
-0.003969996815970279 0.004563553614818658 0.00199878305587878 -0.01023560523679381 -0.008348772880463517 0.009897607774673314 
-0.009991246951698885 0.003832252956501105 0.0001971085546291729 -0.003843651244905053 -0.009000293338480939 0.01066174863003435 
-0.002010817693222477 -0.002412764211350361 0.003468413974142353 -0.003372492122494698 -0.002581522426911306 0.001224776393155084 
-0.004593457840425927 0.000767315716492482 0.009617196370137509 -0.01353936846937741 -0.006510057797388417 0.001705884689559201 
-0.002526378106108949 0.01676773260637405 0.00575346854334038 -0.01803819928976087 -0.009017136423015744 -0.004101077250769346 
0.006581677120317465 0.0004884316554992379 0.01688502912843135 -0.006758612736771756 -0.01249178253295628 -0.01306730855284452 
-0.001768033990915606 -0.001736348929244706 0.01327124490504101 -0.01585971641649626 -0.00306313445518194 -0.001703814544166766 
-0.005080024077162923 -0.001619015082156281 0.01432245224795528 -0.02038533032296509 -0.00582921237834113 0.004161656294643839 
-0.004150238798004251 -0.003728866344182994 0.019874200487094 -0.02442379908961922 -0.005275233638458027 0.0006422416103897353 
-0.005812709571087726 -0.009380666077572342 0.01087097071230787 0.0009400543895429361 -0.005931201272402716 0.000934005799726082 
-0.003170859268878268 0.0004780297163027321 0.003236458834065786 -0.002243480523150209 -0.004965240841468918 0.004776291818753924 
-0.00645554115852728 0.003266861594189301 0.001954816757651024 0.0002316059764461942 -0.004669338457467238 0.004995116677971322 
-0.004173318771768595 0.006571062975964497 0.0006908895265423801 -0.00112282177359796 -0.002883456821864073 0.001513633952703467 
-0.01207689047269201 -0.001453899466714438 -0.002053819834420233 0.008899581999009847 0.008485782257113437 0.0003874663222643248 
-0.001093787202638105 0.0006302056663867369 -0.0023051553713937 -0.0008554186713332306 0.004015351637759056 -0.001739504928366046 
-0.007625805498506747 0.005837449040896153 -0.0009690721017089226 0.0006292875569781262 -0.002297446573932198 0.002663535334053993 
-0.004267198749786726 0.007073006573091362 0.0007839242957655086 -0.005142620689880532 -0.002936837359638987 0.002140801282763302 
-0.006550136346186362 0.00268781662247413 -0.002491090023918895 0.0008508132451039064 -0.001626071430604633 0.001536662141808146 
-0.003925232324219786 0.002732646885067236 -0.0001998605435310791 -0.001018957803541975 0.0005233021502222841 0.0002736676738780578 
-0.003728866958202452 0.0004438503687965069 -1.551179135633244e-05 -0.002579792056946311 0.00128498155309962 0.0002210118483498012 
-0.01496381697757313 0.004668513840630209 -0.002294060965890171 -0.005407313100761111 0.009398954816054163 0.008057654983700256 
-0.02032249137133282 0.01020973223583276 0.0006351719476190137 0.002315191254486765 -0.0006276453397042479 0.01033673293398728 
-0.007111619088497541 0.001419174195442626 0.005112950402510681 -0.002861167972918606 -0.003333933918772487 0.002553267802094014 
-0.003627781702902743 -0.00285495011257214 0.007669166790418614 -0.005614812545878548 -0.002311624829809259 0.001528808320138759 
-0.007598032286471673 -0.008596436331306235 0.01537444220028104 -0.01955475356636844 -0.004603938952047199 0.006922598629052425 
-0.00868513254037947 -0.01173668808752189 0.008901794169337224 0.004075096425073816 -0.001017644396131943 0.0009859569881874059 
-0.0127861257792995 -0.004234215908414002 0.0111570229560213 -0.004401716939454225 -0.006448415222158718 0.005264144772049266 
-0.01087311535404387 -0.004085591480759394 0.008220873533276326 -0.0003262734203039464 -0.001517836026930916 -0.0003196924430580914 
-0.0133662193441786 0.006321159018017787 -0.006208930131556772 0.006269880290268563 0.01898696786377971 -0.01529515220781889 
0.003150884793893352 0.001657738726439109 -0.002525807497311224 -0.002888392222168501 -0.003716731562882949 -3.528852739821396e-05 
-0.004922828176077563 -0.00160639923826274 0.0005743811233141684 0.002127467277615099 -0.0004450717807803766 0.001419693505467185 
-0.004659431008788264 0.003583007257689479 0.004483449089837559 -0.005515601500077722 -0.007753352009481736 0.003551886293004664 
-0.008126097620797624 0.006465525807883682 0.01007085093266034 -0.008654552154363275 -0.004733622016945476 0.002629830655366786 
-0.00629792934517587 -0.006176483778298277 0.01810858500930216 -0.004058164810058385 -0.006197584563895267 0.0005292919248399317 
-0.00923342249015072 -3.855559444538415e-05 0.01246546780987794 -0.007267759367410742 -0.006281078500091157 0.00184414285720274 
-0.01031069705614581 0.007521753902158153 0.01032525293840839 -0.01168773439851309 -0.004371506928222123 -0.000795811614937942 
0.001321392450507308 0.005140834457836392 0.0002265843537450928 -0.01084670838219006 -0.008662177003348369 -0.0004141002836176036 
-0.00605068490866041 0.0007773379796638264 0.004822837271993115 0.006260616244781006 -0.01377305929065782 -0.004275541260257921 
-0.001257066169175427 -0.001095828025937529 0.0010592230474447 0.002801689497356891 -0.002865444745366402 -0.002528955130617977 
-0.00578848522452292 -0.003678927637526311 0.002269757469763241 0.003342582858892878 -0.002931177038100745 0.002374153683864198 
-0.006494291902753886 0.006469382903327002 0.0002632539109945382 -0.009621524292288 -0.006272661316584014 0.005700736209740233 
-0.01033537277770242 0.01085850983851984 -0.002741963696032852 -0.006956729106326446 -0.006552422214887789 0.00860798713372638 
-0.01184610977446782 0.005445357074366127 -0.0007445569282422132 -0.004708661795414069 -0.003168323764636209 0.008655799154021702 
-0.009084017752099792 -0.0008108454148723796 0.0065467276432262 -0.006056744522066446 -0.001144485910559644 -0.0002159289476790141 
-0.01315522941103687 -0.004399158907183948 -0.0004863731042070015 -0.009970125057282706 -0.002871184194808719 0.01672333624367972 
-0.01746808548313831 -0.001741440870165805 -0.003416989511873136 0.02091402214463068 -0.01158591461748463 0.003504075810447424 
-0.01683638178175579 -0.001023475476098957 0.01322084899258506 -0.003829630264295275 -0.0004468451258587548 -0.002972700805230304 
-0.01344199271113566 -0.009745669984275687 0.00554379155535165 0.0007602724332450689 -0.001887377172042388 0.006577025384500132 
-0.00897078421155292 -0.008306158443618192 0.007977748732134131 -0.00681578589086318 -0.0005927356624993776 0.003592192602894641 
-0.008195855530468477 -0.01371284584049924 0.0168032482009211 -0.005169142835424466 -0.001696902249900851 0.004530012391347168 
-0.01129758865767264 -0.01355377665295663 0.01389187874704124 -0.01021934852991132 0.01185035873012231 0.001122440007199751 
-0.01196876051017561 -0.004184964053880367 0.004500150717592682 -0.004653626614308141 0.01343896089218412 0.001255615858691418 
-0.01302853444688617 0.005740254485716761 0.001896512759283166 -0.004681466190029283 0.00657444759008784 0.00531226593410686 
-0.009368587033846493 0.005245387270480164 0.01123159821021152 -0.006807005323688546 0.005526854013447483 0.001221001869284399 
-0.006508290371560829 0.001883016294027143 0.004220576555005612 -0.002236928619635726 0.00141741461655538 0.000559406847935084 
-0.01147744209835444 0.009153135592330781 0.0007895730343128705 -0.002238498608908833 -0.0007233128889993772 0.002264481285277633 
-0.004963456982490869 0.007903102994423684 -0.002129038242147799 -0.00609995299120453 0.0009900174681609912 -0.001084658465286225 
-0.003024336791363923 0.001991655850347262 -0.0007908343667718946 0.002977542197643142 -0.003054114467114562 -0.0001992916195435184 
-0.000890887204578045 0.007568428799843862 -0.0007737019956322746 -0.001211138915670681 -0.004932036487308251 0.0008663153360973903 
-0.006385076207373685 0.008117257095112292 -0.004621179630086712 -0.004423787564598267 0.008407017546812541 -0.00588869152816634 
-0.02224770840696429 -0.002456026085986687 -0.01464223583924305 0.01810890968665149 0.02156616869040221 -0.004394765679786489 
0.0007819943070383999 0.004208404635377164 -0.005837497426373808 -0.007924400271937075 -0.004662307848566989 -0.00190239752683004 
-0.0002163158314676908 0.004409361420508088 -0.006302287059150682 -0.004382273188292321 -0.01164362141756056 0.006824641012283879 
-0.008704268728024865 0.006322206362868726 0.01128452656892804 -0.005132156571713471 -0.01603850275270442 0.005393977061813196 
-0.01019131995971277 -0.001218582735493857 0.01899303305188656 -0.008170458684537515 -0.02043032468400642 0.01040315663099703 
-0.02019373843241047 -0.01204247596868878 0.0210010480522427 -0.01501244953702694 -0.01535181027564594 0.02234008805972049 
-0.01270734636891757 -0.00613856305895016 0.01541594421663985 -0.01275228364172122 -0.007050474457488955 0.008474717977708702 
-0.002572541309032738 -0.01106360651588787 0.006902683859884495 -0.004298125314193276 -0.009005872371896392 0.00534198283836653 
0.005147752944685785 -0.005617292402084413 -0.002458959351843554 -0.004133870301272171 -0.009705378031872047 0.003771539475044329 
-0.02330703161106921 -0.01568214029254796 -0.00950836966930247 0.01467446516273942 -0.01036427254044345 0.01656279424443187 
-3.628095582472338e-05 -0.004585741524706633 -0.002848549899953528 0.001397594656335556 -0.0076441981581058 0.003973366488223747 
-0.007790480468853041 -0.006187570390446345 -0.008313248911220138 0.01184258769498946 -0.004768368170756856 0.007050656813254436 
-0.01278217209656711 -0.001535476127890211 -0.006085266625719115 0.004981080045055887 -0.005848600530889802 0.0137445151901592 
-0.009062243795435758 -0.001987963753143419 -0.008409130366464027 0.005851969940548362 -0.003467882965849224 0.002339656919051437 
-0.003147375523009802 -0.004642693152063939 -0.009925736069201104 0.01056683789686734 -0.004172928038970045 0.003684403578042514 
-0.0003246024363900786 0.01311469747912999 -0.009293219167707147 -0.002398355956458566 -0.009694637010069685 -0.00174344946259215 
0.007131712033700849 0.005288330006223393 -0.008110332140270586 0.0005736870842812181 -0.004398460988959096 -0.002677141079990442 
-0.01034267201250375 0.00756797426424887 -0.01135237060465508 0.005495739686558207 0.006213129956331129 -0.007274238166619626 
-0.02179353441781891 0.003345250120898306 -0.002233557304608971 1.463262182623853e-05 0.005103663371128717 0.007707660402708746 
-0.02215578441743546 0.001591521068084234 0.003972002405935014 -0.003686530713297886 -0.002052061375144548 0.004198045027019714 
-0.01943357815643731 -0.006232790860432594 0.01171370509582636 0.0003505513836211064 -0.006445362437253438 0.008042192295496639 
-0.01581995390129354 -0.02006740895601029 0.02237266134416056 -0.005520331876184449 -0.01101788145747463 0.01223775096872419 
-0.01249348524594419 -0.01110684942699521 0.008422102212089272 -0.002381935474262462 0.003336970963504448 0.007702275785794859 
-0.02219248794980133 -0.009172687019121125 0.01154745108052045 -0.0004476500341879374 0.0003014790822668191 0.01423659286199802 
-0.01513143664571379 0.0009089390213362059 0.001975887529645686 -0.002138619973526605 -0.006258398284710996 0.01230547477628665 
0.004153357710943264 -0.006053581238067395 -0.007672727347766719 0.01803358217341326 -0.002471970912520007 0.009709588652932298 
0.002334681521950047 -0.003159537247270902 -0.002365830000880796 0.004031180832774181 -0.005591250340099079 0.003131181474426046 
-0.01087339325406508 -0.003639554729359653 -0.006435662345704574 0.01280193229043908 0.005554462126824247 -4.629738973249905e-05 
-0.01440352935419383 0.00366845447584033 -0.003692846055030983 0.005911946501779926 0.01239941547446967 -0.004749691749757977 
-0.01291989122918119 0.01829074762608552 -0.01694652420649769 0.01194289417038805 0.006516030365371393 -0.009153589685320316 
-0.007371491273991156 0.006963583720448399 -0.004734940894482343 -0.001997845834491634 0.00500884145458207 -0.01003636509703571 
-0.00286472567221877 0.002461026269363985 -0.005031289504725346 0.0009215184656142376 0.009319796834135901 -0.01229373119337816 
0.005020137786627766 9.371128651445773e-05 -0.01706702028542777 0.004767378343791333 0.009341904252400293 -0.008295804464195481 
0.002399623226546947 0.008571178207384979 -0.006002404283785704 -0.000231476245565478 0.00542253114589833 -0.01044443793764584 
-0.003683204991921085 0.00957165992417713 -0.0008863839666206331 -0.006768005552497361 -0.005885025995421711 -0.003134661282982469 
-0.01945848389075919 0.001698560723755731 0.009469878792604887 0.0005685973045225803 -0.01271560201856885 0.007855198955029173 
-0.03252652230030571 -0.004183538790952237 0.007788963700658028 -0.0003142452126608724 -0.02271779347468496 0.03137644646516174 
-0.02570670590498163 -0.0133689460898174 0.008361315376036915 -0.0002176198750695077 -0.002222639402005453 0.01316999212382739 
-0.00322847185821911 -0.02265414970179685 0.004666318765225526 0.003071069139669729 -0.005100468808699392 0.009014050538859284 
-0.01407527507743318 -0.01034663767123911 -0.004545556204605785 0.003325057858312956 -0.00083705627722174 0.01587329793523558 
-0.01140575626030385 -0.003985500600040976 -0.006777932830413292 0.01006949436024949 -0.004223634787560542 0.006615700468526005 
-0.01157873578283774 -0.007113637316714543 -0.0009972286424282148 0.006989999264017705 0.0002908978924756094 5.247947243106229e-05 
0.0002561254149634947 0.003201627460340042 -0.006921159944554175 0.003610264809754207 -0.008797765494510263 0.0002280907709527565 
-0.0007003490825338601 -0.002722200409373224 -0.01000195815859275 0.001282766737852672 -0.007973330326847071 0.007132657389024476 
0.00859773720940284 0.01406088908200212 -0.01115801199009976 -0.01956999705842448 -0.006680743434757047 0.001363645282693607 
0.01375685341535967 -0.001390093135731033 -0.008643862741812346 -0.006916770836826414 -0.005336036035483258 -0.01232266153314514 
-0.001151712675529316 0.005091852908169991 -0.01204177952569415 -0.001413037747287474 -0.005791979591403352 0.002718273459937781 
0.01371672825982188 -0.003607568287768267 -0.007386494088435909 -0.004305726352638315 -0.001823028503865541 -0.009451493563999462 
-0.002822877498806399 -0.002986003815369415 -0.008668017444450178 -0.004659469975437683 0.01027048956498015 -0.004560256480950931 
-0.01716602254321936 -0.004621336383044264 -0.01418482413429538 0.01288589412114834 0.01145363170161902 0.004612537183436944 
-0.005129161026796519 -0.002784278441478547 -0.006260862472286579 0.002848300393000651 -0.003272617121291262 0.009691120507984992 
-0.009486406070298093 -0.009679708506622876 0.006708837366457217 0.003832499099155028 -0.002490862921601494 0.005133361280628338 
-0.008498923655745042 -0.008322230853098786 0.01463525839981327 -0.001482446585828434 -0.02016496883115931 0.0128070019863191 
-0.008045336392823118 -0.008814340317928559 0.01898314199943189 0.0115372884724368 -0.01685249199606832 -0.006273889764218765 
0.0008267193805391858 -0.00442273805198068 -0.0006824243943048501 0.009078609590203231 -0.008880057600466928 0.0006432624351329858 
-0.01597856704831345 -0.005596429305597005 0.006860021692851075 0.000533601248851992 -0.01830508179769332 0.01789554262186137 
-0.007028763609575067 -0.007984844402521871 -0.004642046000323318 0.005273900031396554 -0.01578968112427452 0.0235814997531983 
0.01389624908374397 -0.01936573630777244 -0.01013102180047202 0.02197749998471337 -0.01029340384036217 0.004130797513912981 
0.01524103111224677 -0.003609637929835925 -0.01520540225336688 0.005680023819583185 0.0134664947992769 -0.004903609084991397 
0.008904018838363762 -0.002427292623221858 -0.01306765984043168 0.004183418449655125 0.008679647159227637 -0.001890597676357047 
-0.008349791655583845 -0.002032750889643749 -0.0167495780573158 -0.006291433925255007 0.02938429801689612 0.004463479265991396 
-0.01314444164073382 0.01315668662622015 -0.01556326336745192 -0.007140482396870357 0.01527683664371039 0.003696568696821635 
0.002939860558037043 0.003320241785950688 -0.01890232902433989 -0.006808205279500402 0.02383715973912201 -0.006194192365740155 
0.002559945401380469 0.007543550907564065 -0.01042498432162282 -0.005081150219006509 0.01024669377725097 -0.01239142105404074 
0.02036979158152663 -0.00548151489618934 -0.0151460171901542 0.009311932279039068 0.01344672469550489 -0.02362269644150769 
0.01555690457708601 -0.001557585310593004 -0.006809454399659053 0.0005496821232596877 -0.00191215634875552 -0.003871434784799661 
0.008768687556744018 -0.006970718100968695 0.001677452308089189 0.0002063761818854287 -0.006346333686656661 0.002199508075673006 
-0.01370663572372701 -0.001528404150144319 0.005322407033825642 -0.004154404350877807 0.008494158422236942 -0.003354638235992605 
-0.01168148007601075 -0.01139780207283115 0.003660336259464929 0.0008903977052389981 0.01231545796486131 -0.0007350709974349752 
-0.01643019063874426 -0.002060287619709074 0.02003385820019952 -0.01230225561032052 -0.004511223115038458 -0.003277135272291364 
0.0006154188364507775 -0.009552535071521942 -0.005034130360138219 0.0008015373928674477 0.007501459654632362 -0.0002567166427343287 
-0.0112264578229402 -0.004148583657650719 -0.01113146864234232 0.009788055263423094 0.002093755923250092 0.008827666823885581 
-0.008918827793126064 -0.01161647504508654 -0.01427529729318733 0.008019153965740027 0.01832741807636936 0.009097500292788939 
-0.008933331207755449 0.00177026691203481 -0.01594880445975721 0.008550434006986065 0.0172528830265212 -0.01798706711340192 
-0.006021899712841162 0.0001962696589163388 -0.009169231905526777 -0.003709046826365059 0.01065983670251894 -0.002092840447941668 
-0.00174201387970442 0.01316045951473218 -0.01396339788149316 -0.01031451767779861 0.006454673590341763 -0.004285639806438256 
0.006939107067891118 0.007241281305982117 -0.0146876076711532 -0.02192370924619418 0.003410069194179255 0.004271211369656762 
-0.001784678380249077 0.01118307363243197 -0.004768739758053826 -0.009191811127593867 -0.004090080586192112 -0.004773553041925043 
0.002174429175998784 -0.0034629821660517 -0.00764647758933798 -0.009457158888378288 0.008988432415122705 0.007451046645651114 
0.0006679999319575984 -0.01457015834090414 -0.01148395898599181 0.0005341316729298208 0.02398341025817146 0.0003694059193538384 
-4.778049310893948e-05 -0.007104911810843562 -0.006670675398168359 -0.004231304291052571 -0.0008389148289985214 0.009793067898160972 
-0.01108055614747488 0.01459307106339079 0.001705814530411564 -0.0002777456239339269 -0.00369753803978085 -0.005693389447539868 
0.0009373876721285073 -0.00551427018794128 -0.005411820975972766 -0.00689296379390239 0.002242668047938899 0.005633504127886105 
0.01560456394648285 -0.006898197751939732 0.006918618967371518 -0.00337989134768023 -0.009938249375367324 -0.00410647669193181 
0.01808646112050362 -0.006445336940098422 -0.0006423712360183339 -0.001083998357786299 -0.01106337516306268 0.0009481746328091037 
-0.005283916114423104 -0.01271450223556392 -0.00479451052093447 0.009264907220265765 -0.004995999000998578 0.01613968899571647 
-0.01237933963610103 -0.01316499484768067 -0.007392995378347749 0.01247413446754296 -0.004217172279636371 0.0169423768056983 
-0.02327075332456862 -0.007272941263423891 -0.002112416656130226 0.009246033172872276 -0.005187126923544415 0.01083614154724055 
-0.02838211404950918 -0.004650967653135231 -0.01579638770062641 0.01442666543267733 0.002061670688341462 0.02480616486039363 
0.02806915685346568 -0.0163637269065189 -0.01271901760550687 0.007312191791804632 0.0006094830834872787 -0.006259176212254819 
0.0005471588286570635 -0.008374244476083943 -0.009798583783558721 -0.006943162067179055 0.006315844725583132 0.009967132836662243 
0.0172198581125435 -0.005608842427223235 -0.01049002272359231 -0.005835108198403094 0.00387693361085972 -0.001061287397401429 
0.01080204806594093 -0.001301462298639705 -0.01639596640714874 -0.0143657679941843 0.01387923771311363 0.009475778654011712 
-0.03150445309176633 0.004388366844286407 -0.01407947494524204 -0.01172085870954558 0.00659583952208369 0.03551591104602483 
-0.002309737067668915 0.007157523000615106 -0.008383796094718102 -0.005196550595080291 0.001530180987998291 0.0007864896921434521 
0.0006313418163045972 0.0007479848624690941 -0.009646317287733137 -0.00373167210351863 0.01281310749658993 0.004362557600949539 
0.03825724107526161 0.01042119614206026 -0.02120887808526035 -0.007850365101747567 -0.001797248809035874 -0.008866150927220458 
0.01733302771072711 -0.01091359101878872 -0.01908728985242483 0.001855947821786394 0.01724752012193417 -0.003898206820025908 
-0.0005452492051404564 -0.00596020264043667 -0.01117626604536621 0.0009964097733750818 0.01340536466729338 0.005748026239928732 
-0.0003251744244011907 0.006332579854921937 -0.01097499137635845 -0.004621657156927588 0.01059940251881866 0.004785033594016955 
-0.01022416170326513 -0.002458548543656982 -0.005527285706951972 -0.00542566784674038 0.008058690178029954 0.01291396057695589 
-0.001356535909372785 0.00909499313282619 0.000848068030824701 -0.01148117386212753 -0.001101392316175938 -0.0009168101332215948 
0.001651128284622785 0.01553592599003932 -0.007149172610492502 -0.01514619779039828 0.007166306206572376 -0.00623218206246237 
0.002291529092386671 -0.001396832380672515 -0.01041377685911027 -0.0009187701308935621 0.01590114522286137 -0.0093343261127385 
-0.0109014007306141 -0.005518625748346768 -0.01520936868018089 -0.008598703245812089 0.04742836498027411 -0.01307100433582175 
-0.009423679937906259 -0.004525136025076215 -0.006589834406495573 0.005264123857963152 0.01298532286696142 -0.02526867773859855 
0.01665623040383474 -0.01121976003861005 -0.009862835747791324 -0.003136549528238117 0.02184683538735517 -0.01938119854223345 
0.01060774690169071 -0.006016829822829538 -0.01280078003817647 0.003372827010004543 0.006860768347537983 -0.008017094254345537 
0.008613168309472964 -0.002988409492545592 -0.01032414911938782 0.0007754251762909402 -0.003869399361399542 0.003782496906569545 
-0.01155708471161296 0.003857476149901323 0.002591853171533598 0.000980589890576104 0.0007796171692450494 -0.002004795989839145 
-0.01029537071896026 0.008699503474998777 -0.003421193320205562 -0.0003371395691855088 0.01477942149104483 -0.004781310852613679 
-0.002395791682118722 -0.0007468342328850982 -0.001633984094733019 -0.001830753404390531 0.008045045800116907 -0.0004464004610825855 
0.005731596797656753 0.007984724696916768 -0.001996512334451242 -0.01023499033065296 -0.00118721282272531 -0.01044877906447257 
-0.002807648292064615 0.001224761886939253 0.004323121864160441 0.0001805043654177716 0.001229176294270716 -0.009913572210565196 
-0.01014741982718739 0.001435166055578908 0.002347032917031748 -0.005356208457863987 0.00461403631462034 0.005670779107336841 
-0.00678961831475058 0.007236055494178651 -0.004472535545626119 -0.006616087414307714 -0.003449932248720361 0.008111478822376967 
-0.007505225151377247 0.01028175559330515 -0.01522633531642395 -0.01208552384595643 -0.006952630068421622 0.02852947106996012 
-0.002855346547150364 -0.00842203273804709 -0.009989184684117088 -0.006355369214313199 -0.008352311498802927 0.0352701158653858 
-0.003707001852683675 -0.02015994957953299 -0.006614622372923267 -0.002582205440396699 -0.002742739536372743 0.02073279577759753 
0.01275563793355018 -0.00638923959145643 -0.01219069003198386 -0.00397250880280567 0.004160134119141836 0.005487971516528362 
-0.00207243875531283 -0.02331701177314497 -0.01731098890071818 0.009505548630909534 0.003571311708441472 0.02272212887142119 
0.01834142020294604 -0.005434098023728106 -0.01696213474481669 0.01067795485091248 -0.006980486873648278 0.002414557959985855 
-0.01190483496537007 -0.01995295827794796 -0.01110633633528799 0.01188521043296669 0.007419476088680864 0.01874364991804596 
-0.0005403585933081629 -0.01296519660861062 -0.01161200935859306 0.01470871051799444 0.004608391733371658 0.003560264778751575 
-0.004553783584878456 -0.01324639810369706 -0.0102550991630063 0.001459576825737746 0.001912051941597938 0.01647650134127376 
0.001299464455761373 -0.001575437510308931 -0.005477696331485799 -0.003563066492986277 -0.001658834965660481 0.01162177872819369 
0.01419198716862869 0.002404850581260558 0.003922732318168421 -0.007110447128870071 -0.01367143051215154 -0.003374464327024943 
0.01091773804384045 -0.01055477884442278 -0.006531488916934832 -0.0009378263979263718 -0.005835100300541114 0.008349536549097623 
0.04053419737326066 0.0005044584003391649 -0.01634344252098425 0.001197831046855002 -0.008758096808072633 -0.01548798656524339 
-0.01120626460722805 0.008759779295537116 -0.01222141304022014 0.004864347310988879 0.0008725451929603863 0.002332699903238701 
-0.003649668014441396 0.005842102917406776 -0.009413581510396013 0.002515237541572349 -0.002211260778749558 0.0003821670835622588 
-0.002042543245135849 -0.0007585842494630197 -0.01048162546013695 0.001504384142352967 0.01016443044441676 -0.0054339848067558 
0.006930737679632314 0.01167852990118745 -0.01525078676132974 -0.005483446853584653 -0.005044938182238564 0.003604605699801348 
0.0005379881458049538 0.007282055799000957 -0.00982344325676604 -0.002238066693215134 -0.008404319766116056 0.001604381580526536 
0.01769824573578582 -0.009275626778091552 -0.009365372334176813 -0.001942629230462541 -0.007941754708004765 -0.0002770915903091755 
0.01120817410999313 -0.006749404059101101 -0.002543901982820721 0.003303602541204757 0.001512498741142034 -0.02046265632917339 
-0.003453639120523207 -0.01774365092491856 -0.004818619191560683 0.003034314217503746 0.01556366976979312 -0.005013428807553872 
-0.002363030880145061 0.01110905445487961 -0.0218383894317916 -0.0006800067072149338 0.01423987196454064 -0.0104412072011366 
0.009608989540255649 -0.009900974833027073 -0.008470049113228479 0.008346005179403161 0.009384743753579882 -0.01635262160230079 
0.003951591089545165 -0.02082264392668216 0.009958228761076583 -0.002525035641622119 -0.004132387212887019 -0.003335472432191199 
0.0067762043038786 -0.0240370296058031 0.005247065105236339 -0.01013381274060907 -0.01077249260131839 0.004987929217544161 
-0.01843874055041801 -0.004942030512687756 -0.008953054308771406 0.008834555191845199 -0.008302943027099391 0.02017881232455777 
-0.01970579163131144 -0.005876955321869534 0.01496610378937573 -0.006230868546948084 -0.008215318845114495 0.009773763161589726 
-0.01031304156463638 0.001114333344453284 0.0009741834453823763 0.003571540032342624 -0.003468149731544757 0.002015937827350787 
0.003815956463759161 0.001607469044904989 -0.004291009111673153 0.002855183400135474 0.003601559113079508 -0.002908663952165936 
0.0391232843335757 0.01064737797039022 -0.02343506453560464 -0.00895865472507138 0.0008092268018740031 -0.01528570105406015 
0.02080817843996096 0.002353906357079476 -0.01132888818420351 -0.00230498015126746 0.008153273535330824 -0.0106871763267542 
0.0001736850236021844 0.003761565375280907 -0.01165418806719113 1.252477309261845e-05 0.01466629357640731 -0.009013618602346164 
-0.03351955863103637 0.006940532019211257 -0.01680043821618922 -0.005063979827320373 0.0271076640807668 0.01666019667778065 
-0.008314901186957215 -0.006006315975260671 -0.02027564068802395 0.001209754583041138 0.04240574624297296 0.001024437036531715 
-0.001730885297024099 -0.005136331806837368 -0.0128455478230067 0.006073680098670008 0.01438010478894564 -0.005498055414201803 
0.009307121305418895 -0.009789473808058481 -0.01489552695050662 0.010104683284694 0.01660191496132591 -0.01132395616122468 
0.003042569063649572 -0.0102796097585753 -0.01740953159202656 0.007956811569914027 -0.0004269551667921285 0.01060334050075139 
-0.01054350081327052 -0.01250750423024292 -0.01747192268969166 0.02241259825416283 -0.008233480350087377 0.01691882889217674 
0.004383498717297313 -0.0183467468139866 -0.01143734929741219 0.01132161557555897 -0.01079181462727162 0.01351854099625669 
-0.008086235239421273 -0.01065428423347695 -0.005166491129828668 0.004786900014030942 -0.00734431925756368 0.01693629809509645 
0.003726761819487308 -0.02049779332505001 0.005394756726376958 0.004568282948907423 -0.007381384926157602 0.005355088369313823 
-0.001625986615182644 -0.01451638962347763 0.003885843349600404 0.00719047922215108 -0.00408417882258411 0.004034579435900407 
0.01289081694133833 -0.00836554102549044 0.0005751553609384968 0.00339324268518621 -0.01220574064840139 -0.001834655427732389 
0.005223153067573186 -0.003906425507979898 -0.005612842370421299 0.003783168377814148 -0.003964238737038316 0.001157797062707497 
-0.008728618681936142 0.003978068488937221 -0.01768054429048217 0.005110880083493076 0.002324548893885794 0.001170945394150452 
-0.01532334801643463 0.001335677768047188 -0.01226171110890858 0.005052755300813217 0.009507004686916799 0.003661760392574821 
-0.004431613147076839 -0.002842973231717837 -0.008161850004593159 0.00467239692399711 -0.008062420450918154 0.002127638947809668 
0.004755721382203303 0.0009585649394855229 -0.0116390851648302 0.003692886646133338 -0.006876081528845992 -0.001673288749118656 
0.005280215193189757 0.01812187735475696 -0.01163661861830345 -0.009316192802800934 -0.01217926448643212 -0.001077961251594833 
-0.00633280301076585 -0.0007784942119405056 -0.01417788170446693 0.002679873721251565 -0.01662796092603289 0.01061834458391369 
-0.008372606954300437 0.009131009519156753 -0.01095976927637228 0.003882684922495689 -0.004370229707335526 3.794366079676817e-05 
0.0001491284350017217 0.007134957091178703 -0.01394038321889983 0.005351230439565305 0.0005767838504004695 -0.006888150062192636 
-0.01067561387425863 0.002975908209240258 -0.008424208794176784 0.004819423372320498 -0.006219727744353713 0.004741742851351501 
-0.02315001744207008 -0.004136698465391464 -0.006187050316265795 0.02391853069196225 -0.003793803854245027 0.001346262976043136 
-0.008836765573642595 -0.009254412066357938 -0.0003323160820734405 0.008015662461232077 0.004271658022800586 -0.0003143131280260827 
-0.008530607668851361 0.001883338911882784 0.008245925990086563 -0.009380302896102871 -0.006407385420435474 -0.0005919321261088585 
-0.0177428500016422 -0.01543512853013869 0.03439774305246798 -0.03235301018437584 -0.004626779529144377 0.01285479237783078 
-0.02472340509427936 -0.002399988937980386 0.01399159016538653 -0.0057567309562574 -0.01475050834883436 0.01847428471601725 
-0.01951901988079233 -0.008089664574768932 0.007966637883774047 0.0002867879665338272 -0.01265278847583389 0.01796203550912684 
0.0005564845840842748 -0.002877373691151386 -0.0004176009778402833 -0.003604490548862405 -0.00380359945593403 0.004922336849558274 
0.0144238575944478 0.004826298903184751 -0.006821869494995587 0.001144457698735955 -0.003896559468768553 -0.01147086280916074 
0.04929202378198063 -0.01825313899070579 -0.01759264261154156 -0.0006329852903391518 -0.0002685032290514744 -0.02175387046602259 
0.01518173171883264 -0.00162230020159806 -0.01118234292306526 -0.002733556487999409 0.01619041066640339 -0.02245285220343641 
-0.003539297365454672 0.0107935815410169 -0.01469478794263458 -0.001398475632565366 0.01326022274066971 -0.01047814224187315 
-0.03473580586331675 0.01708023568686164 -0.02011696413450115 0.006743224360923706 0.03425069555594409 -0.0009317160696294307 
-0.007469222511749896 0.003840143661549602 -0.014026190847841 0.007381029865131041 0.02254857351416287 -0.01171092797228289 
0.003268296598048865 -0.002409795319220546 -0.01161607884092514 0.01320097497005732 0.01282357715256185 -0.01373327277184486 
0.003480149190000209 -0.007542802053914349 -0.009311444679421478 0.007027718436196719 0.002726612167817611 0.003691893271851352 
-0.009452679801465601 -0.004920205029529978 -0.007097175258904594 0.0072195699464124 -0.00251737206081926 0.01426236789125298 
0.006536271259129704 -0.01800038195812598 -0.005297776029116298 0.02110694363968367 -0.01081820576987695 0.005985425253711838 
-0.01247877669725545 -0.01031614666716543 -0.0002229655198329075 0.008514513855232726 -0.006256670225240779 0.009012490881392976 
-0.01924978741433023 -0.01500090668628872 0.0193339699310759 -0.006561102550818587 -0.01193485406046137 0.01293590020588558 
-0.0147538441302849 -0.01655250467451107 0.03829702631011062 -0.02398843859923395 -0.01838222608990143 0.01015020185134446 
-0.02643957602436815 -0.01733285618445465 0.01903705084345794 0.009479376796753623 -0.01634355326972107 0.01693178932241662 
-0.01910778063104963 -0.0002533597362694101 0.01005501140528415 0.005752401665894601 -0.01356794055988016 0.005157756748708875 
-0.01229414076164206 -0.006802448292050299 -0.002392529388541609 0.004849303588835068 -0.002797406984774643 0.004759014897538469 
0.007593892536843147 0.0004200294656798771 -0.01078759218266879 0.006291212957958064 -0.006206893945334264 -0.00881849011990142 
0.01125409472639642 -0.01556918152962337 0.0009609214810283599 -0.01453209646215239 -0.002555684909867771 0.001710679938032862 
0.02087163411134615 -0.01512761251145273 -0.004067977410164235 -0.008738592954190079 0.003840848599097962 -0.01053623759515174 
0.001390685643471069 -0.004071312603996127 -0.001301527404576341 0.001086274453248563 -0.002357056524739648 -0.002351903493540885 
-0.004584904192675539 0.009470067783841721 -0.002662706373778519 -0.01551076236828013 -0.001635641082360835 0.0032569060701843 
-0.008255957227137673 0.009938667678649767 -0.001235318486549789 -0.002466884640637761 -0.004570809402637517 -0.001783380536628416 
0.00151695226486705 -0.001218703798879793 -0.0006135009410796667 -0.003008863896365835 -0.001760488952519105 0.001785506971162389 
-0.006986331141826711 -0.0008641719423586136 -0.0006886781238923323 -0.002094015379232105 -0.004662706118389091 0.008829023743448369 
-0.00694170101078768 -0.005370084869853033 -0.0005734954567755948 -0.004946152090022101 -0.009504492727550284 0.01254006754049709 
-0.01159624585426591 0.0001800262271021872 0.005891104129972408 -0.0002083911163152197 -0.01235912076900463 0.0001060121453296948 
-0.005933757603067532 -0.0006425342966326616 0.00232533900518316 -0.003438222484283549 -0.00224566866261763 0.006117381691574689 
-0.008026534984934816 -0.0008699061211844676 0.01072627938971214 -0.008002324915832993 -0.002352477301260234 0.001998792563546002 
-0.03122161744355858 -0.005915714346498391 0.01900930385125957 -0.01751998922465263 -0.008689287850356046 0.03184090465553739 
-0.01894341303396461 -0.0001622839857474309 0.01900174703753959 -0.006479851089592324 -0.01368751352852591 0.01573649550388265 
-0.01471226008491155 0.003823935072126865 0.008960678489711542 -0.003752082717252034 -0.01188542871075461 0.01133061913870368 
-0.002719041659595492 -0.001419422475471588 -0.0008919987289376824 0.002597402968025784 -0.003492869364870281 0.002009938292396596 
0.01079486497667101 -0.000824218029370804 -0.002508687205349202 -0.005587398213310938 -0.0005515237133369752 -0.003578371481647358 
-0.009543980671412008 -0.001354449274625067 -0.01589724856541129 0.0140716532910714 0.006560524975262842 -0.009078685793246733 
-0.01276094165402435 0.02143970736743406 -0.01002910309855385 0.002780189115202383 -0.007528174810720837 -0.003802866117185495 
-0.01720901024958663 0.005404018768132521 -0.007137880734480519 0.0004018977060095536 0.01411550726671612 0.00137752473819093 
-0.02199554520834425 0.01158656532061329 -0.004385068585270273 -0.01092544690235582 0.01554702126178116 0.005918742316052984 
-0.01105376441966358 0.004003930632327092 0.0004635801010828715 -0.0009111356565068414 0.001892619183120758 0.0006024433700000762 
-0.009239827730136338 0.003276177607217606 0.001623234533320811 0.0002000035841261236 0.004707685084123332 -0.002546274536489118 
-0.005685229879543204 0.001557948859363693 0.00443300758962482 -0.001578092297582172 -0.0003192308904286728 -0.0007379321143508665 
-0.007865242358731523 0.00103479507362923 0.004876061698038662 -0.003173254197248447 -0.004166536870901299 0.005382551271957012 
-0.02137249252618331 0.00702271495782472 0.006467102545418997 0.0006582363578394511 0.0006603107121223007 0.0007618045966248136 
-0.008963394043469151 -0.0006631021351412398 0.004366227469804122 -0.005030441495763384 0.009093195902225992 0.0004477418513378953 
-0.01349111446117606 -0.01003970949164978 0.02754463965941871 -0.02219170982680146 -0.004831512608079046 0.005160042846083685 
-0.01169609518546181 -0.01751181739187754 0.0304272426324521 -0.02795011355338315 -0.00624554699990099 0.008842454135973661 
-0.0132957867531273 -0.01465831648525245 0.01471919987548778 -0.002978800202933784 -0.00508478987269192 0.01008722466602519 
-0.0153205049001791 -0.01047470500918802 0.01288422706744399 -0.007140852621286183 -0.009491592881710136 0.0124030707950778 
-0.008159332872684768 -0.004351067077512996 0.003572102568471249 0.001301289298357826 -0.004285342596149648 0.003094443401450956 
-0.008013252102526626 0.01573154645048912 -0.0140846521597359 0.007541813451646747 -0.007091457999279515 -0.00251460918533446 
0.001136162313375122 0.005706923947143384 -0.002378264665175516 -0.001542502743738859 -0.001535107068331705 -0.002734756942453581 
-0.002086180702649325 0.002932404498689946 -0.0008841658362980328 0.002903909843095722 0.002991106004384016 -0.002347638394464413 
0.007317927243735945 0.008140669347910672 -0.002982730170640928 0.0003186836889061815 -0.004260619888476454 -0.00390517179666442 
-0.004582874660466247 0.006569529605933296 -0.004472985299730161 0.0007161193119688517 -0.0007590687479352165 -0.001151987365075431 
-0.01027096778760467 0.009303220159448377 0.006716529217582802 -0.003229098797839449 -0.005796905933550736 0.0006159381221324385 
-0.009014591028470801 0.005885887527130161 0.003826503025857264 -0.004440479549144662 0.004648723730965015 0.0003946071756900316 
-0.01311524029542861 0.006608860526276963 0.01304637117611226 -0.008202035879396372 0.002328741802435271 0.0005581805068941895 
-0.01243311253754092 0.002057067070814385 0.005702099580470328 -0.005948013966172187 0.008842947655535359 -0.004743496082138572 
-0.01667263546976104 0.003324663147207118 -0.004913576269008769 0.008326934382562452 -0.003514364424747416 0.004203882611402048 
-0.002466678887365737 0.005492291712743744 -0.005394812404728568 0.00510237082518685 -0.002536678381355842 -0.002162415947242521 
-0.0021820418007347 0.01050630716748866 -0.01031227474197238 0.005678076863062937 -0.004751906383730936 -0.001463146675348996 
-0.003221542450144653 0.002175884822039812 -0.008912143271692546 0.00363290444077746 -0.006234361305648314 0.002645394174993746 
-0.00240137987749886 0.0007551201191129709 -0.002491360679628099 0.0003651478073053636 -0.005802350715845029 0.00105397239077576 
-0.0084886580373165 0.001178868903390902 0.0008836719758702686 -0.0026980796424907 -0.004507326547014821 0.006514543414549955 
-0.003352844607444899 0.005707674344878691 0.002151019568435175 -0.004800445398499978 -0.001460982726336255 -0.004092460248376794 
-0.0001142454305669582 0.001214074402247665 -0.008513785869689474 -0.004952473624341254 -0.01245974308719603 0.01843565532545832 
-0.02068753970861429 0.0008524674681349393 0.0006356919661279724 0.00222755229221338 0.00432380657938927 -0.008235819799978611 
-0.0186422290282318 0.006611623585301175 -0.0002745629289988649 -0.001951762721344839 0.01410445508342373 -0.005382900461582719 
-0.01301500518461507 0.002029109848335551 0.005939413890111438 -0.002516476277232887 -0.002221758079442367 0.004647082338666533 
-0.01084846287818902 0.009181301794025945 0.006230080467956583 -0.01034753215703015 0.005024025126161851 -0.003757836978896769 
-0.008168498255783292 -0.009203849182440419 0.01253267662695022 -0.005664851988347226 -0.001089757079719232 0.0007383016458583434 
-0.01054470715513752 -0.008372667705783036 0.01559404829159123 -0.01390589682676723 0.002534058472469511 0.002329936289319139 
-0.01418137738815866 -0.004394874594152358 0.009219030750551846 -0.003301980834788227 -0.007046187328592579 0.007512950271804053 
-0.01708556742586944 -0.005894835068566445 0.01090063934400726 -0.009349053305501705 -0.004976989420677917 0.01200408966678388 
-0.006072324436674777 0.001554776372357435 0.0009674807985144226 0.007665441758558142 -0.00649296848162305 -0.006505595296737417 
0.003157761238968259 -0.002302130973979005 -0.002725713022373837 0.003687559850045368 -0.001546379581773639 0.005368936585841568 
-0.0009750684605292884 -0.007305846552755501 -0.004904694559706988 0.00974501117855099 -0.0003594549987748862 0.001196697978583382 
-0.004399447201880625 0.0009714149679734569 -0.01217387589778363 0.01292206949498593 -0.001128205625084199 0.0002787677413917249 
-0.005922646300899349 0.0008253506033268234 -0.004004690064023866 0.004042615761017756 0.004365973087587238 -0.003489656783018524 
0.007424647031315576 0.003439332168398148 -0.005732600205441953 -0.003033242054705429 0.002199224046216804 -0.01044400528078696 
-0.002179523984775707 0.005792096095704078 -0.009106513407082826 -0.002069721763040644 0.005358412950055465 -0.009808028081525156 
-0.01499666273741385 0.01101236702663969 -0.01372654456010492 -0.005183975425458337 0.02767935081465182 -0.009912715639801712 
0.01439538540403431 0.00545844746742685 -0.009130040211057283 -0.005454091401268408 -0.01053824689005911 -0.01085412186574559 
0.001922050156903924 0.006536791235072442 -0.009654354985906353 -0.002157231995676333 -0.006526200278906477 -0.003376420620317868 
-0.01088409012047076 0.01087823776137249 0.006498612649576541 -0.002002411285398149 -0.01682663662930432 -0.001623835057540788 
-0.00313071441435741 0.01307566520019303 -0.0005411686373717344 -0.005421114733873325 -0.005968505355852436 -0.004240354090695527 
-0.01504837151649144 0.004450188374125595 0.009685479759941848 -0.002136344882545868 -0.01237774813598299 0.006487857109154613 
-0.009076382983781958 -0.0007443870186944232 -0.0006738902857870504 0.007462599647395254 -0.0003018095036148214 -0.002863279358610155 
-0.01112443193733586 -0.003137498683763395 0.01100262449738863 -0.003765521122027645 -0.0004365912515510618 0.002192247060020243 
-0.01383516560928562 0.0008380488677376186 -0.001834452003537214 0.003759348758003626 0.006814843142074683 -0.002637827554818065 
-0.01536729828336754 -0.01818147898937552 -0.002314188477827737 0.01714706303511489 -0.008958048507711118 0.01593717181960593 
0.004605517937698747 -0.01245093135544823 -0.007762704348976284 0.01411061439196964 -0.001772903931859006 -0.002592496936311114 
0.009030449519212416 -0.007325401571733837 -0.01260549644115636 0.01500283747271468 0.0003713259393917935 -0.004372910845068832 
0.0005960340447641381 0.006555834676933753 -0.0145435388702984 0.009595775851589499 -0.01260362608310919 0.007835468372904065 
-0.0008924610139893176 0.008991485884420065 -0.0062560997281164 -0.0007339948161181895 -0.01397931690955851 -0.0004291623877834366 
0.005766272636515653 0.01453616832268766 -0.006382610321447941 -0.01082620760785855 -0.007992198103517081 -0.001928660982071552 
0.01160201316007594 0.005452981034441931 -0.009400444231422713 -0.002775900783878482 0.001820800826980525 -0.0122168449920224 
0.003875271662816991 0.01602623567183867 -0.014298565116749 0.001487514796475078 -0.0001968105515755638 -0.01586950716991401 
0.01369731643430861 -0.005907812430516273 -0.007769261480537307 -0.0008371066903042599 0.005387000915953849 -0.01538535731480912 
-0.005900695074361828 0.006626944999993997 0.0004366513368844118 -0.0006764108019499104 -0.001531776166938076 -0.004180259992855214 
-0.01137071208122046 0.01061758545198362 0.001852369353061287 -0.001978267827932193 -0.002676235842499567 -0.002377074805800597 
-0.01812171004807342 0.01341751084269466 -0.007886467293376775 0.006263159364300976 -0.0009995710585179714 0.002512908366881967 
-0.008177623904074515 -0.02345619606073977 0.005650637772835239 0.005220468941281098 0.0007390574950466091 0.00530534521579189 
-0.004790125215349444 -0.02116959298008273 0.006893138809986418 -0.006572500314982441 -0.002150450950226179 0.01153160394903013 
-0.01517421358457905 -0.01858431985462078 0.0009504808629436999 0.00216626247355713 0.01774375025764143 0.008011682852431921 
-0.01077821626893071 -0.01804910721965741 0.0003147715766105723 0.003756640778909961 -0.002405113613555935 0.0168771285950463 
-0.004146146226467135 -0.01929382160409061 -0.0009080797489362654 0.01490080154329572 -0.002160806656100403 0.009153955876534637 
0.01268073995655986 -0.01644977753707978 -0.0008462172231960553 0.005607793652923011 0.002413193364075097 -0.001411009116153593 
0.021329301698985 -0.00973238718164348 -0.0001340192738725179 0.003289877429604763 -0.008762245022509548 -0.006834864455909422 
0.009061847342129108 -0.004043556925475793 0.003142436805186198 -0.002849196138113994 0.0009511244717046337 -0.008223791491849567 
-0.0240642379344055 0.001797453676518137 -0.00344612896663791 -0.008460557689076912 0.001396248062991495 0.01489170234035694 
-0.01670476626477671 0.01268845234780773 -0.01226980006424648 -0.001812040037442975 -0.001286763331835014 0.009148120755704795 
-0.01061759448843876 0.01153797852629087 -0.009823092599775794 0.001749456404311257 0.01081977275101503 -0.009342503201593071 
0.03068035592593038 -0.001827640672659655 -0.01648882871440134 0.005686036953190821 0.01018243748653699 -0.02978472672810961 
0.007058974336516794 0.02002652266732257 -0.009426663844423736 -0.01014753413787768 0.005522761778982419 -0.01162426518722465 
0.000910206189732407 0.003239455274790702 -0.007687733160427732 -0.004450199870379117 0.008170603086902584 0.0009615927180203519 
-0.004095038062235181 -0.008901721588631232 0.01179441245196327 -0.007984604085558263 -0.003473770267308174 0.0009561525749534122 
-0.009780344552739536 0.001953495541408717 0.01861177757472783 -0.006486060131697849 -0.01081667685691409 0.003013501900772583 
0.001112616222977557 -0.0184433513163144 0.002236571155235319 0.001104459782408572 -0.01131334969684343 0.0006427484146385027 
0.0005389451986850225 -0.01904430872173477 -0.007610494009460088 0.002295392894936563 0.001140004847829189 0.001674154045492471 
0.01646774256428596 -0.008510741400177707 -0.002284316275067134 0.001617920324104106 -0.002745960340369434 -0.01114731365558811 
0.02731361518112295 -0.00385674659117813 -0.01512951785051385 0.006886756127325441 -0.01229364501665426 -0.00925127074410767 
0.002285222355539657 -0.007217020864667004 -0.01827742390568511 0.02664776149930663 -0.01107434169256909 0.0009022645107339432 
0.003914121027559033 -0.002400501664110957 -0.009003028905772453 -0.0005376748650609768 -0.001650531709620906 -0.0009524244014316692 
3.609479827202118e-05 -0.004526812703435513 -0.01193430988891876 0.001257817810186722 -0.001929375540760353 0.01264850449597628 
-0.0215579219951867 0.002247338373656592 -0.01271034331184914 -0.0009078074697744362 -0.009678444678853884 0.03211439551554608 
-0.008291163095744498 0.01556447102639925 -0.01834279938241378 -0.007221584004987644 0.003748804931998498 0.008474725483899014 
-0.002963663139772154 0.01328795293428387 -0.01326214753743445 -0.01550618731936932 0.00377443288749595 0.002795295933692396 
0.01277116269124509 -0.003072248969775127 -0.01308305575040594 -0.006486373373657493 0.01622521315011172 -0.01582630271122595 
-0.01119614477791994 0.01601119603367574 -0.01589255313024513 -0.008345679601657266 0.02298085760582255 -0.008331279399941969 
-0.01342223681761035 0.003796479342638335 -0.02078394887071537 0.01523647211637554 0.03496840040156752 -0.01897834835126835 
-0.006005829385946878 0.001636602814994126 0.003900048646298986 0.0007561095588615561 -0.0008501030572120259 -0.006821410760942976 
-0.004757756215206294 0.001292738086002964 0.0114281416169627 -0.005656911447247714 -0.004901835350984336 -0.01248478473940496 
-0.004317669103433556 -0.003865542021248035 0.02261859502891994 0.004076123383036331 -0.01279189020995252 -0.01295023036486 
0.002768006739965131 -0.02234564803707493 0.02340436618499378 -0.005933927120990167 -0.0005873876751017517 -0.009127739647036844 
-0.0007963568023813113 -0.02154288859890589 0.004041561093599944 0.002865749907617936 -0.008445935072105846 0.004229418075894097 
-0.001918055622293976 -0.01770134784039535 0.0119895957980226 0.0003812198435426382 -0.006359020926216691 0.003130672394136739 
0.00306061329873256 -0.0167323864316063 -0.001255139666691607 0.006274897159241469 -0.007049364274968014 0.005047089044910054 
0.02270188179698412 -0.01671106952400601 -0.02114526975811976 0.01515511038479571 0.008317910482164485 0.0002604905655369963 
0.01893095828915031 -0.009581421518653089 -0.01094478059259678 0.003222906277191358 -0.004047595816358109 0.001205691011450286 
0.018476362154367 -0.002609494865079721 -0.009459837044697885 0.002197311184205729 -0.006675206253434695 0.004630236634699523 
0.01302257489604108 0.007534369381718765 -0.01077094566018266 -0.005562360539022173 -0.008382609280103441 0.004559131052739513 
-0.02016397375471224 0.0007013694756523976 -0.01431183099935993 0.00383134899166108 0.003308237264431106 0.02194805100008582 
0.006036141236173768 0.002861379965149377 -0.01729312758073902 6.52218638927869e-06 -0.01060790319013327 0.007002105770844636 
-0.003170658597736479 0.00218340336184254 -0.01366213710797372 -0.001810140722064742 0.01576193433793747 -0.0009212045175102316 
-0.01575858870264246 0.01337627137214774 -0.02768211937794906 0.00618298649604172 0.0477326146471445 -0.0100028179565875 
0.004326745110097341 0.002083265415484945 -0.008721033363325722 -0.01024113405339267 -0.005498144202739044 0.00831763582321962 
-0.003160121164173991 -0.01277069902134531 -0.002606175619275926 -0.006241595281439366 -0.001233751979745439 0.01750116234194422 
-0.0114901119926786 -0.02412235696594708 0.01422773981141783 -0.004790355654296775 -0.006595660462140462 0.01402703050574223 
-0.02059626330191693 -0.02471770828717682 0.01542128580697429 -0.002377632397965265 -0.0122653327838549 0.02430437714724648 
0.00839464636228684 -0.03645674185520622 0.004863595039169607 -0.002993100566937843 -0.01871751633743466 0.01120429254045469 
0.008594214493666994 -0.02966136323965367 -0.01199698676217137 0.01309807723571831 -0.007029686845269705 0.008891655652423978 
0.00572097299513608 -0.01502217831292486 -0.01095950075438461 0.004509120888083507 -0.001862787765799457 0.00614731301724314 
0.03357557974999737 -0.003865373578169598 -0.01554488362061067 0.01131624840460788 -0.01922625760883052 -0.01311354160820448 
0.01714641583108296 0.01254920162692122 -0.02100364997131037 0.008564693985885552 0.00220799678634456 -0.02217428598791613 
0.02468310947035668 -0.01596227358758352 -0.007850081037795411 -0.0006322614630753199 0.004777762034135753 -0.01659347965467793 
3.170700093089642e-05 -0.004017633075552562 -0.01213916340649564 0.006711723186072716 0.006351897313152942 0.0005438756703205577 
-0.01619876042096203 0.006327286073909734 -0.01831187597596101 0.004903051321882828 0.01618858195306041 0.007190295372142205 
0.002483061743470283 0.008426986319879417 -0.02283346921906951 0.01329447570705326 0.01037923501206029 -0.01126123764391384 
-0.00713103159800593 0.01252905087895258 -0.01771494912381769 -0.005833354109769503 0.02951690179810908 -0.008327164445096843 
-0.006900651591600808 0.001058873999732125 -0.01230642189963606 -0.00738912141867108 0.03239081304212623 -0.01114134413160353 
-0.004541785664935785 -0.005174431590104824 -0.01356577015318037 0.001082484261431583 0.02997270813793964 -0.008694929196355713 
-0.008044078955872905 0.01227118619705272 -0.007749245556841406 -0.004810156763461735 0.02458235986333764 -0.0157465365086471 
-0.005839143750710186 -0.007214575305620129 -0.005633955440626786 0.002007073839895461 0.01775557257574686 -0.006218939920098919 
-0.002451918533920658 0.001847151228758702 0.000304959607643399 -0.003226892386280468 0.006815393787268324 -0.0006713244528242901 
-0.01308715072891559 -0.008315965938232884 0.003717719308486611 0.005852782367256769 -0.008536092015378813 0.01094302049894437 
-0.01195065348421348 -0.01834680955718151 0.01394199691296661 0.008501115985692404 -0.002603531474979704 0.004249005705034809 
0.001471840826859827 -0.0159350029983424 0.01464626690823828 -0.007584578672499833 -0.01272182503581808 0.01014559354882106 
-0.004989503737507468 -0.01258196401002244 0.002058736788650854 -0.00398437003115402 -0.001722646562294338 0.01257298737558141 
0.02711047065656246 -0.02021691117437349 -0.009940179269034836 0.001090696060869862 0.003604771904157204 -0.0112593975414197 
0.01441564929949668 -0.01425886108811855 -0.02710992700058786 0.02156696740032127 -0.008017772300262625 -0.00187008858496212 
0.002567161986564357 -0.009230226229718197 -0.01907630244031129 0.01580728765807487 0.007196946708053579 -0.004341499568187504 
-0.003666138867979268 -0.007221755434822542 -0.01197597508532908 0.00880911563890884 -0.004188900458483432 0.01589643680804476 
-0.00544539351770281 -0.008435770054392243 -0.02109581886669752 0.01814234941246025 0.0003512697253074241 0.01191193011083004 
-0.01288523785853756 0.01485585313261372 -0.01698777129711718 -0.005002887114319492 0.006808450078618061 0.01475113031560747 
-0.02494901065044586 0.0009399466911296539 -0.01045739169143906 -0.008278665901248134 0.01914312758088737 0.01364067300344993 
-0.01202149759777188 -0.004895915821524619 0.002028257834974434 -0.006357102811637944 -0.004662570215690723 0.01205030235239444 
0.03658455260403796 0.003463404864831674 -0.0247137548007032 -0.02017216277909193 -0.003398712622001229 0.007557097434034572 
0.007221097232054797 -0.009905210143011902 -0.02030185309069173 0.0007431755261092701 0.01165636328433617 0.009680336403750099 
-0.009085875372591602 0.0001318955859683469 -0.002629156957148226 -0.009650017051145576 0.007633726445400644 -0.008264050591249242 
-0.0009598352069246467 -0.003038910713311515 -0.005468562903696905 -0.003775430179030896 -0.002966212586166504 0.01098728323119473 
0.0040215218524093 -0.01040516168670494 -0.01439983755950734 0.002686927113777846 0.000490263016203927 0.01171690280940011 
0.005076804675047388 -0.004422428738664117 -0.008338061487142225 0.0110276407404746 -0.008883275820520302 -0.00994757469898991 
0.001497309472376199 -0.01903796788288924 -0.001333311952461646 0.002522074820576264 -0.0002379093104326126 -0.003970775911493877 
0.01053008046121253 -0.01229344957548882 -0.008918397264168789 0.002941754526215276 0.00402531937257451 -0.009430764342762474 
0.0233298464597912 0.01259214127683257 -0.01418062168127834 0.003280049116193451 -0.012995289814177 -0.01772689083767055 
0.04217525995618127 0.02231588911946117 -0.005900599468404813 -0.009587428909145237 -0.02897628746657453 -0.03716342270142457 
0.01642546798349887 -0.01207849864855276 -0.004964199116630697 0.0007367743754699131 -0.005528109660368014 -0.004782450068182952 
0.01471086249797796 -0.02425099585227314 0.007752928673911283 -0.005358154651107162 -0.007374971217879414 -0.0001519009489157245 
0.0005410531390231318 -0.03234119437125341 0.004713617472732417 0.002230901694579604 0.003716807963318363 -0.005916238331709196 
-0.0002261045120982837 -0.01288207540122606 -0.002176459735210628 -0.001495488037339113 -0.005157154817757154 0.01429210287035086 
-0.01122449294432873 -0.02063720720411518 0.01185661323482694 -0.009783554008787927 0.003438677595205638 0.01103373260369257 
0.01070169329792066 -0.0144940996194635 0.007412221676271038 -0.00745359629307893 -0.007157208560918967 -0.005345899604052948 
0.001586229179283626 0.005015773023358953 -0.004994085513406789 -0.006876155788822156 0.01024619745810153 -0.01020420904703876 
-0.004429022500753127 0.0220202213431633 0.001098155479761118 -0.02239085920541611 -0.001377390046252693 -0.005701049974681656 
-0.003554515540391706 0.0005908253478562518 -0.0110386531271746 -0.003984630928034459 0.005830331862197773 0.007509228448903719 
0.001710805387561829 -0.003984962277640956 0.002640739010434561 -0.005089301446951553 -0.001571543590906987 0.001700210508860279 
-0.01096363709063837 -0.003271020325680224 -0.01366919774378456 0.00577578390101594 -0.002139333314885397 0.02289802346205973 
-0.0080845765990427 -0.01062350458453621 -0.02104188022832551 0.01659459449230232 0.0002788560396102151 0.01713067057734546 
0.0004856181988169033 -0.01160550555254057 -0.01484196558129794 0.005196006485795971 -0.0002984483736432104 0.01720813900450938 
-0.004295164494574785 -0.009551907784617687 -0.001362316427197333 0.002166831215259045 -0.008108272545506409 0.009577056184422575 
0.01907634856097544 -0.01672360901256439 -0.009898627280190579 0.002743410542793004 -0.01166287960352473 0.009946849634203574 
0.002182359382212134 -0.01478655921219521 -0.01832627953275205 0.01081769086036178 -0.004793073751049242 0.01311447244610493 
0.007440868746928392 -0.01539125978961437 -0.01687123943946877 -0.0002573520721135584 0.004829669506348343 0.01802880756017963 
-0.006280223034543159 -0.007452710979365508 -0.009364402835263812 0.00706759227791565 -0.00752067135629212 0.01668304418378099 
-0.003506861454374223 -0.0169194482557893 -0.00950338595201352 0.02244887168457162 -0.0129622834591694 0.01489202328094174 
-0.003450216809392704 -0.008422443346054459 -0.0003910902013513261 0.003645331153296394 -0.004218280924073683 0.009989719975753117 
-0.003111340373107541 0.004226120510929537 -0.002859986158201365 -0.005644733139993105 0.007774949649356553 -0.003001263598586149 
-0.009413432907740984 0.003812691545749826 -0.007332571879092455 -0.009316363311052888 0.01759847531584991 0.007726616292833636 
0.009158297701091288 0.01249751731509321 -0.01795402409691496 -0.01435139150895511 0.02998862666024851 -0.02253105444835834 
-0.006477644049750999 0.007660365141154473 -0.01629751821759541 -0.006450303884845896 0.03910850823844338 -0.02072094243825406 
-0.004997574190062331 0.01344118047044307 -0.01631492437325049 -0.0006717599901975945 0.02054665630862841 -0.01092305541408147 
-0.009826942656009151 0.00362699014968402 -0.01357444031595486 -0.0009161854475694876 0.01947394780788783 -0.004160890365537082 
0.001643446756968632 0.01889666312560555 -0.01800939623427101 -0.009425280443712762 0.01859644776632103 -0.007466159929188708 
-0.005367548320359018 0.007341048955835378 -0.01036706436988392 0.004924274816297881 0.0107460944061015 -0.01189277454381942 
0.004658017649817176 -0.001955703370866073 -0.01273152443465284 0.012309919668874 0.01398331649171731 -0.01059238619854141 
0.003761827714420038 -0.005167845543048436 -0.01370864403227802 0.01579025640786738 0.0005333884507978732 -0.006769578131098818 
0.01580461298767178 -0.01554093555636053 -0.01469214011963006 0.02002829323073119 0.001819368770115191 -0.006599169918219525 
0.03306068388962252 -0.009040208432400006 -0.02411306817020816 0.02008267327326132 -0.01725594969788617 -0.01143301421329178 
0.02339098107961291 -0.009603511741724319 -0.009301097547476279 0.004951963930347858 -0.01167866392164074 -0.004683594507399779 
0.00198549365734129 -0.01097900551681442 0.002539831092690906 -0.01053862559284609 -0.01385971929289318 0.00585229218792825 
-0.01881707362707351 -0.02034097712715975 0.01879638891623477 -0.03092139027082783 -0.00605952301531533 0.02500987932380281 
-0.01372011060720608 -0.01799572243971681 0.01939585403378216 -0.006312021168398738 0.006864095841479918 -0.002414549209142912 
-0.007329141257497518 0.001782682253443251 0.004311327269608123 -0.00782788317553605 -0.01798702435206904 0.01407966165881378 
-0.02238827724722887 0.005755713745489695 -0.00639887736686486 -0.01031751155971434 0.008443914278832376 0.01143300522973787 
0.02227367345763266 -0.01018281380449945 -0.01819350310045242 -0.007292469029575812 0.002114128357251194 0.01423003930969169 
0.01624327204874327 0.01452936952735936 -0.03091325491986687 -0.01059201470136009 0.007061632726365641 -0.001888742215339474 
-0.0008183371694853121 -0.004979515847185881 -0.01340152111734455 -0.0124856023759233 0.004407768736114827 0.01125061182545783 
-0.01294648845563533 0.01106168273502788 -0.01034939130869273 -0.002861958723364215 0.0003654739155327033 0.006584735977676082 
-0.01078895443803235 0.01549025814968258 -0.01734473296055985 -9.602640027096184e-06 -0.008883769071610851 0.02210235497876045 
0.0001030778173909651 -0.002830887747515487 -0.01717718077362798 0.0004915234874021267 -0.004452837977660233 0.02917627528329584 
0.02022017266214939 -0.002487976397320099 -0.01438659384274766 0.003288585545649801 -0.004388422254211781 -0.0008972831916140188 
0.008430862228963854 -0.007117195666615753 -0.01901504186739417 0.01089156705513987 0.005121282558472441 0.006439800160751893 
0.01427769778461372 -0.01083161634906256 -0.01322654376012688 0.006703706082166122 0.004720579299412705 -0.003566863207890422 
0.01886309144538426 -0.01601564951505363 -0.004359051108186095 0.008155079704488375 -0.0024673247840004 -0.001075685046131309 
0.009220289712961198 -0.0161728020352917 -0.004329361280396741 0.002140766836458535 0.001309745548693634 0.001211053102049356 
0.012829050944917 -0.02684710911597391 0.00952513690672801 -0.007547503953172837 -0.008391052167092117 0.001018415427476535 
-0.00158383754400551 -0.01949241620742945 0.03374732999728203 -0.0170894660136568 -0.006376913588080017 -0.007180735257220626 
-0.007391306207026351 -0.007451399402902421 0.006832494820959832 0.008475964472941525 -0.006922851772469394 0.0006326681443117237 
-0.004269771919153824 0.005173159357629376 0.007453088959816981 -0.004460353038293954 -0.005192251285731839 -0.005209299116547686 
-0.007094064545412409 0.002750394903239359 -0.002286918089392548 -0.005313114041357809 0.01081802647601517 -0.001026992147566308 
-0.02337162538014594 0.01009167954740028 -0.0104110484541944 0.006540211085812567 0.02159088685625745 -0.01081147758511366 
0.0003104532482448788 0.0126419207505714 -0.01725415440807445 -0.009226809909835905 0.02199513905455876 -0.01222943340737393 
-0.00393534613694179 0.0008077779043249671 -0.007977035226916243 -0.008786227998523306 0.01105170127717209 0.0007303592958863191 
-0.003751512204136785 0.006958527062624701 -0.003713624112148449 -0.01089017005156913 -0.004888702632147852 0.002665668333136735 
-0.009323731052612031 0.02539186811196961 -0.01106278746407643 -0.01512820215158757 -0.005318406989263157 0.009031746245779409 
-0.01267828516708997 0.001572405096193197 -0.01855056123343637 0.01187062495549543 -0.01334007723163301 0.02013353610823445 
0.01016439006027264 -0.01074298525800341 -0.01138312300898348 0.01063407262352539 0.001528812960050876 -0.001602150164236239 
-0.006783888307228353 -0.006572404662057778 -0.003641573153651944 0.01061834150475096 -0.006498622750854614 -0.001333594333690011 
0.008142862114274372 -0.005060375997014785 -0.006375698434037417 0.008087854701850314 -0.009797439475467708 -0.007687112310509352 
0.01335161434677313 -0.006447082053823173 -0.012011411253994 0.0141047571989153 -0.004177216061042857 -0.01470454700889563 
0.0237604618861085 -0.004222950647996894 -0.001132502577216807 0.0007634835054221309 -0.004294286250435744 -0.01991985928322059 
-5.315295549939486e-05 -0.01451701905152032 -0.003406194225358437 0.00488017271285248 0.005448907565587999 -0.003712712495811687 
-0.004008048924209669 -0.008502163169431701 0.01116040202136283 -0.00279101683687171 -0.007637347565601888 0.003178101318721984 
-0.01842711505095635 0.005287093692630244 0.01877233127889724 0.0002164887424002013 -0.02435812293759409 0.00523659851945864 
-0.005285101846696843 0.002833023536268647 -0.0002172653756587985 -0.004284226083846418 -0.004129748117116666 0.004613021560818619 
0.00541783262493449 0.002625972690631916 -0.005971093181159743 0.000445817472642541 0.001908286516223001 -0.005295869142636601 
0.01985561444365112 0.009482220793861016 -0.007636497916529313 -0.006741021110358392 -0.004872999443813327 -0.01263654762839404 
0.007868821071310681 -0.006128652592653884 -0.02405300124009988 0.002747342668345095 0.04373285457441303 -0.02839868036895168 
-0.004820943393438575 0.004987806061831722 -0.007987932668241663 -0.002293020581392031 0.004295638002969762 -0.005885458538891381 
-0.03083804530279697 0.01563166381644744 -0.009039084618806488 -0.003813054949219958 -0.007511482510308042 0.02305938747174649 
-0.02914907055958524 0.02352130809514016 -0.007960483105348821 -0.0101920678318479 0.00702293380618285 0.01308234994368998 
0.004217299487089456 -0.00498706432320702 -0.00500865262741397 0.008877755658295504 0.0004418512700528756 -0.002170501718310364 
0.005178234713154688 -0.01119703347377355 -0.007473421380850124 0.01486424024105674 -0.002374172024864631 -0.0005082209801709846 
0.01363216614883581 -0.007871831091277448 -0.004915583787553436 0.006532202681638254 -0.001208876161505746 -0.006895485505012194 
0.001120042563643947 -0.01099292284390548 -0.006337332536471184 0.001680913661103103 0.00253917166602375 -0.0005515417135833892 
-0.003761955787335635 -0.01805934496216449 -0.008225237290961064 0.01127856933827074 0.005465027243026496 0.00595300343688191 
-0.004579796427153882 -0.01437296010382489 0.001882206383294774 0.005274830929028502 -0.0002608428588910629 0.001307499963328188 
0.001304835864518039 -0.02842749730017546 0.01791489019636659 -0.008978840785050634 -0.006195275852773904 0.00619391636395236 
-0.005356085926247201 -0.0171547500216371 0.01971811481393019 -0.01874020555223359 -0.007670801313668854 0.001415041398801545 
-0.01721683239138196 0.001909936870239757 0.009218184264402188 0.01260400209372185 -0.01185485510196178 -0.005733724179478339 
-0.007272958285966417 0.004589620125914572 0.01109536297483375 -0.002837108939569984 -0.01027582728793928 -0.001494227606981387 
-0.006243941010694995 0.009947062904352599 -0.003290325633378703 -0.002612378023987236 -0.006065965006290995 -0.004682831861867123 
-0.003424920521355487 -0.008084754307796958 -0.01346338237308094 0.006330817287685378 0.01045494293110813 0.0008220065871196463 
0.01087000427543577 -0.006541390539768439 0.004282648035192812 -0.01720579311164747 -0.006284347019123095 -0.008877091181307044 
0.004675560099530772 0.003399501743320478 -0.005631610347447827 -0.003322818976050149 -0.004077970768828222 -0.001885537978311487 
0.01597148944218517 -0.003250045327313565 -0.006722623142023627 4.823159903114932e-05 -0.002250469044042774 -0.006346516422164524 
-0.004182280529179243 0.00951012940735297 -0.0106622216654149 -0.006349167119774307 -0.0138545485665758 0.01328861005176777 
0.005530046089157868 0.005685090646064073 -0.01326413839094926 0.002925270367277913 -0.01068647548909491 0.003853049778445055 
0.002609626055790302 0.006273170475438843 -0.01258378015583142 0.007590986880506754 -0.003051927295420223 -0.004556848116013108 
0.001125177698496709 -0.002709315813429579 -0.006777248784572024 0.01159526856328934 -0.003057021433281032 -0.001415608520425988 
-0.008314492071740376 -0.00358810785986011 -0.003802359396980464 0.006725578809759069 -0.002207241074958404 0.007677582595699097 
-0.02657070704823665 0.002995457335666865 0.00521575723862416 0.009348800296611703 0.006569380851000436 -0.002208472499639342 
-0.006723615581121549 0.009817222616376331 0.001276749687651786 -0.003541555837346236 0.001915457169677901 0.0003652358382362086 
-0.006096271063709069 0.002093407649081033 0.0112380258280541 -0.008596977520629063 -0.001680744548437533 0.002954049859350929 
-0.008088447610003477 0.002021982094368534 0.00936826289874783 -0.007194052186464188 -0.004584823671358505 0.005835462524797165 
-0.0121516216322257 0.01060934859132366 0.008765176106027978 -0.004027174927498183 -0.0005247898855534071 -0.0002987821820772596 
-0.001663143882764475 0.01066576124286381 0.00377946048309155 -0.002082196307775287 -0.003713609827551032 -0.00896544486500471 
-0.005663222393107631 0.003825953811624081 -0.004982243479933389 0.001739258434124267 0.006782099452573331 -0.0009364767057995996 
0.01247074499263511 0.001934724264494478 -0.004554779507220432 -0.0008037787759442301 -0.004298987981420289 -0.00699558728931134 
-0.02098004472576134 0.01101174044852331 -0.01971039222102032 -0.00393836637639347 0.01889679648164888 -0.002860459447109514 
-0.005397996061855278 0.01541003791090736 -0.01194509369344986 -0.00511061821640513 0.001206361412168979 -0.002953598511081058 
-0.003454047159866757 0.01179522619089565 -0.009458093907164339 -0.006958184633933995 0.002286521418099454 -0.00496908871338838 
-0.004213444167994571 0.008106959314890782 -0.004118009590650645 -0.00865677248195575 -0.00138902781310559 -0.001034968648583447 
0.009980607772583338 0.002553665244389318 -0.002832431682738304 -0.002207605349921831 -0.004668769848130565 -0.00841484037988686 
0.004169423385799047 -0.002523347685017249 0.0001146288541906193 0.005451115312022191 -0.005366450018773948 -0.007142651130005132 
-0.003671617281066636 0.003589749301073982 -0.0004294549488647934 0.002078639998606931 -0.0007111386459678921 -0.003197722306852465 
-0.008356252266454476 0.002011578188708671 -0.002193114542103705 -0.003119223627622869 -0.0005916791885263415 0.003581740709210435 
-0.01882861625069477 -0.003757423713824522 0.002686168106627849 0.01324241518421773 -0.006819033776594235 -0.001585038279344444 
-0.01492138361858015 -0.01065333072089927 0.00414595377458315 -0.003731681160921738 -0.004129045979868319 0.01311606236204106 
-0.007872483103281893 -0.01277533184668476 0.008640410487146033 -0.008944825623383822 0.002743535093898377 0.008659885151251748 
-0.00668431546417673 -0.00888261787984413 0.01485419996492366 -0.01464826470177395 -7.557423322423392e-05 0.00238867219817744 
-0.01320825977026527 0.0009255438101775602 0.007153430556734539 -0.007008019786980802 0.005549686811304889 -0.001641933417203708 
-0.01163546408766721 0.00411909723874648 0.00218765068381535 -0.007736376139889378 0.0009920073859247156 0.003981184769201305 
-0.005411468076966358 -0.003968995129011095 -0.001377445040600138 -0.002328836062064008 0.011375807221177 -0.003048581402114317 
-0.00491490285108147 0.0149230098874563 -0.01264412966669533 -0.006171278203845244 -0.001841607006383067 0.000169378029342753 
0.005032916804179642 0.002117344577790398 -0.004225414823313164 -0.006468553298326747 -0.002576120111212285 -0.006518061814738725 
0.01813698032323473 0.001513922495560042 -0.003132841522131885 -0.002458395548367522 -0.00885540021239371 -0.005502658853232912 
0.005859602091165104 0.008718381094333653 -0.003063544341919482 -0.003413912207926042 -0.003459318086936683 -0.007398929281382679 
-0.007375360622288251 0.02004418151565405 9.341552564167119e-05 -0.005963197535829988 -0.004760321040468112 -0.006241850693465337 
0.005553165837543595 0.003366638475357414 -0.007681534866833428 0.01274118709196401 -0.004298570310581097 -0.00749537898581659 
0.001908204379621499 -0.001821109944785427 -0.003954098790158309 0.01281592231402004 -0.002804989432935813 -0.005892954145961618 
-0.01287437983579095 -0.002433816645528643 0.001649030843348458 0.003812996019970183 0.006674015984441703 -0.004080721285618614 
-0.001245726221445297 -7.691201291569122e-05 0.001035637356071672 -0.001895711066187643 0.0008325558504434754 -0.005937404700850843 
